{"learner":{"attributes":{"scikit_learn":"{\"_estimator_type\": \"classifier\"}"},"feature_names":[],"feature_types":[],"gradient_booster":{"model":{"cats":{"enc":[],"feature_segments":[],"sorted_idx":[]},"gbtree_model_param":{"num_parallel_tree":"1","num_trees":"300"},"iteration_indptr":[0,1,2,3,4,5,6,7,8,9,10,11,12,13,14,15,16,17,18,19,20,21,22,23,24,25,26,27,28,29,30,31,32,33,34,35,36,37,38,39,40,41,42,43,44,45,46,47,48,49,50,51,52,53,54,55,56,57,58,59,60,61,62,63,64,65,66,67,68,69,70,71,72,73,74,75,76,77,78,79,80,81,82,83,84,85,86,87,88,89,90,91,92,93,94,95,96,97,98,99,100,101,102,103,104,105,106,107,108,109,110,111,112,113,114,115,116,117,118,119,120,121,122,123,124,125,126,127,128,129,130,131,132,133,134,135,136,137,138,139,140,141,142,143,144,145,146,147,148,149,150,151,152,153,154,155,156,157,158,159,160,161,162,163,164,165,166,167,168,169,170,171,172,173,174,175,176,177,178,179,180,181,182,183,184,185,186,187,188,189,190,191,192,193,194,195,196,197,198,199,200,201,202,203,204,205,206,207,208,209,210,211,212,213,214,215,216,217,218,219,220,221,222,223,224,225,226,227,228,229,230,231,232,233,234,235,236,237,238,239,240,241,242,243,244,245,246,247,248,249,250,251,252,253,254,255,256,257,258,259,260,261,262,263,264,265,266,267,268,269,270,271,272,273,274,275,276,277,278,279,280,281,282,283,284,285,286,287,288,289,290,291,292,293,294,295,296,297,298,299,300],"tree_info":[0,0,0,0,0,0,0,0,0,0,0,0,0,0,0,0,0,0,0,0,0,0,0,0,0,0,0,0,0,0,0,0,0,0,0,0,0,0,0,0,0,0,0,0,0,0,0,0,0,0,0,0,0,0,0,0,0,0,0,0,0,0,0,0,0,0,0,0,0,0,0,0,0,0,0,0,0,0,0,0,0,0,0,0,0,0,0,0,0,0,0,0,0,0,0,0,0,0,0,0,0,0,0,0,0,0,0,0,0,0,0,0,0,0,0,0,0,0,0,0,0,0,0,0,0,0,0,0,0,0,0,0,0,0,0,0,0,0,0,0,0,0,0,0,0,0,0,0,0,0,0,0,0,0,0,0,0,0,0,0,0,0,0,0,0,0,0,0,0,0,0,0,0,0,0,0,0,0,0,0,0,0,0,0,0,0,0,0,0,0,0,0,0,0,0,0,0,0,0,0,0,0,0,0,0,0,0,0,0,0,0,0,0,0,0,0,0,0,0,0,0,0,0,0,0,0,0,0,0,0,0,0,0,0,0,0,0,0,0,0,0,0,0,0,0,0,0,0,0,0,0,0,0,0,0,0,0,0,0,0,0,0,0,0,0,0,0,0,0,0,0,0,0,0,0,0,0,0,0,0,0,0,0,0,0,0,0,0,0,0,0,0,0,0,0,0,0,0,0,0],"trees":[{"base_weights":[3.6598614E-3,8.955796E-1,-1.8802034E0,1.3307239E0,-7.2140044E-1,-2.4066597E-2,-9.44683E-2,9.35525E-1,1.8847262E0,1.6475813E-1,-1.4999268E0,1.0310308E-1,6.157408E-1,2.0036905E0,5.686964E-1,-8.551982E-1,9.005647E-1,-1.7012255E0,-3.103578E-1,-1.2674157E-1,1.4272883E0,2.0322964E0,-1.6965993E-2,1.5386844E0,-1.0484138E0,3.9488328E-1,-1.3565812E0,8.622515E-2,3.5065112E-1,-8.695678E-2,-2.9984796E-2,-1.0484138E0,8.2812834E-1,-5.8467727E-2,3.539103E-2,-7.8845635E-2,9.654691E-2,1.0231917E-1,3.056932E-2,8.912768E-2,3.2274853E-2,-7.396015E-2,1.3965088E-2,-1.8291933E-2,7.018896E-2,-7.62439E-2,3.0652788E-3,-2.5238916E-2,5.7328936E-2,-6.282651E-2,-8.289303E-3,3.0652788E-3,6.315909E-2],"categories":[],"categories_nodes":[],"categories_segments":[],"categories_sizes":[],"default_left":[0,0,0,0,0,0,0,0,0,0,0,0,0,0,0,0,0,0,0,0,0,0,0,0,0,0,0,0,0,0,0,0,0,0,0,0,0,0,0,0,0,0,0,0,0,0,0,0,0,0,0,0,0],"id":0,"left_children":[1,3,5,7,9,-1,-1,11,13,15,17,-1,19,21,23,25,27,29,31,33,35,37,-1,39,41,43,45,-1,47,-1,-1,49,51,-1,-1,-1,-1,-1,-1,-1,-1,-1,-1,-1,-1,-1,-1,-1,-1,-1,-1,-1,-1],"loss_changes":[1.1278815E3,3.2150394E2,1.8551636E0,7.690558E1,6.733894E1,0E0,0E0,7.499507E1,2.2127747E1,3.5579124E1,1.189209E1,0E0,1.00397865E2,9.797974E0,2.3129082E1,1.30401E1,1.1824167E1,8.0018616E-1,8.2036085E0,7.720176E1,1.2340184E2,1.439209E0,0E0,8.0521965E-1,3.6948762E0,5.491254E0,3.5451717E0,0E0,1.2634357E1,0E0,0E0,8.4562826E-1,1.2543919E0,0E0,0E0,0E0,0E0,0E0,0E0,0E0,0E0,0E0,0E0,0E0,0E0,0E0,0E0,0E0,0E0,0E0,0E0,0E0,0E0],"parents":[2147483647,0,0,1,1,2,2,3,3,4,4,7,7,8,8,9,9,10,10,12,12,13,13,14,14,15,15,16,16,17,17,18,18,19,19,20,20,21,21,23,23,24,24,25,25,26,26,28,28,31,31,32,32],"right_children":[2,4,6,8,10,-1,-1,12,14,16,18,-1,20,22,24,26,28,30,32,34,36,38,-1,40,42,44,46,-1,48,-1,-1,50,52,-1,-1,-1,-1,-1,-1,-1,-1,-1,-1,-1,-1,-1,-1,-1,-1,-1,-1,-1,-1],"split_conditions":[7.14E-2,5.4E1,1.7E1,1E0,4.55E-2,-2.4066597E-2,-9.44683E-2,5.319E1,4.55E-2,6.32E-2,4.35E-2,1.0310308E-1,1.429E-1,1E0,3.4E1,4.146E1,4.941E1,1.01E2,1.624E-1,1E0,6.25E-2,4.685E1,-1.6965993E-2,2.3E1,4E0,2.48E-2,6E0,8.622515E-2,2E0,-8.695678E-2,-2.9984796E-2,2.61E2,6E0,-5.8467727E-2,3.539103E-2,-7.8845635E-2,9.654691E-2,1.0231917E-1,3.056932E-2,8.912768E-2,3.2274853E-2,-7.396015E-2,1.3965088E-2,-1.8291933E-2,7.018896E-2,-7.62439E-2,3.0652788E-3,-2.5238916E-2,5.7328936E-2,-6.282651E-2,-8.289303E-3,3.0652788E-3,6.315909E-2],"split_indices":[17,0,0,7,14,0,0,23,14,4,3,0,4,9,0,23,23,13,1,5,1,2,0,0,5,3,18,0,7,0,0,0,5,0,0,0,0,0,0,0,0,0,0,0,0,0,0,0,0,0,0,0,0],"split_type":[0,0,0,0,0,0,0,0,0,0,0,0,0,0,0,0,0,0,0,0,0,0,0,0,0,0,0,0,0,0,0,0,0,0,0,0,0,0,0,0,0,0,0,0,0,0,0,0,0,0,0,0,0],"sum_hessian":[6.6925415E2,4.545642E2,2.1468996E2,3.5831528E2,9.624892E1,1.7454467E0,2.129445E2,2.1070036E2,1.4761493E2,4.5381615E1,5.0867306E1,4.5381615E1,1.6531874E2,1.348981E2,1.2716826E1,1.8950565E1,2.6431051E1,4.313747E1,7.7298355E0,8.6773636E1,7.8545105E1,1.3340201E2,1.4960972E0,7.979185E0,4.7376413E0,5.4856896E0,1.3464875E1,9.724632E0,1.6706419E1,4.1142673E1,1.9947963E0,4.7376413E0,2.9921944E0,3.839983E1,4.837381E1,1.0971379E1,6.757372E1,1.3165656E2,1.7454467E0,5.4856896E0,2.4934955E0,3.4908934E0,1.2467477E0,3.4908934E0,1.9947963E0,1.1968778E1,1.4960972E0,8.228535E0,8.477884E0,3.4908934E0,1.2467477E0,1.4960972E0,1.4960972E0],"tree_param":{"num_deleted":"0","num_feature":"24","num_nodes":"53","size_leaf_vector":"1"}},{"base_weights":[1.0720292E-2,8.447116E-1,-1.8036758E0,1.3372971E0,-4.9129352E-1,-2.9899139E-2,-9.040039E-2,1.4501631E0,-1.3102766E0,7.5779134E-1,-1.0314063E0,1.6916742E0,2.758204E-1,5.7650615E-2,-8.1869975E-2,-1.551749E-1,1.4447787E0,-1.2593015E0,5.341012E-1,1.2435422E0,1.9119341E0,1.5929804E0,-1.3108482E0,5.2077365E-1,-1.2864939E0,1.5761907E0,4.6789716E-3,-1.4053484E0,1.234036E0,-4.6590942E-1,1.2176192E0,9.469897E-2,1.6694644E-2,9.667278E-2,1.2045772E-3,9.6266456E-2,-1.0182895E-2,-8.320918E-2,-1.1072385E-2,4.0328454E-2,-5.0812345E-2,-7.548573E-2,-8.488332E-3,8.852444E-2,2.9403849E-2,-7.3525496E-2,3.9409786E-3,1.3841897E-2,7.480123E-2,9.525678E-3,-5.961428E-2,7.63143E-2,-7.5063086E-3],"categories":[],"categories_nodes":[],"categories_segments":[],"categories_sizes":[],"default_left":[0,0,0,0,0,0,0,0,0,0,0,0,0,0,0,0,0,0,0,0,0,0,0,0,0,0,0,0,0,0,0,0,0,0,0,0,0,0,0,0,0,0,0,0,0,0,0,0,0,0,0,0,0],"id":1,"left_children":[1,3,5,7,9,-1,-1,11,13,15,17,19,21,-1,-1,23,25,27,29,31,33,35,37,39,41,43,-1,45,47,49,51,-1,-1,-1,-1,-1,-1,-1,-1,-1,-1,-1,-1,-1,-1,-1,-1,-1,-1,-1,-1,-1,-1],"loss_changes":[1.00781067E3,3.0093066E2,1.4282227E-2,1.0159674E2,8.4196846E1,0E0,0E0,9.042316E1,1.330336E1,2.3995605E1,3.1619621E1,2.3839355E1,1.18827194E2,0E0,0E0,1.3805422E1,3.709919E0,2.9415382E1,8.581522E0,5.284752E1,7.113098E0,1.8886398E1,9.595524E0,5.855648E0,1.4170017E0,2.747795E0,0E0,7.1059875E0,7.7420425E-1,2.8417697E0,3.286233E0,0E0,0E0,0E0,0E0,0E0,0E0,0E0,0E0,0E0,0E0,0E0,0E0,0E0,0E0,0E0,0E0,0E0,0E0,0E0,0E0,0E0,0E0],"parents":[2147483647,0,0,1,1,2,2,3,3,4,4,7,7,8,8,9,9,10,10,11,11,12,12,15,15,16,16,17,17,18,18,19,19,20,20,21,21,22,22,23,23,24,24,25,25,27,27,28,28,29,29,30,30],"right_children":[2,4,6,8,10,-1,-1,12,14,16,18,20,22,-1,-1,24,26,28,30,32,34,36,38,40,42,44,-1,46,48,50,52,-1,-1,-1,-1,-1,-1,-1,-1,-1,-1,-1,-1,-1,-1,-1,-1,-1,-1,-1,-1,-1,-1],"split_conditions":[7.14E-2,4.3E1,1.7E1,1.362E1,5.3E0,-2.9899139E-2,-9.040039E-2,1E0,1.9E1,6.58E-2,1.935E-1,4.17E-2,2E0,5.7650615E-2,-8.1869975E-2,6.242E1,8E0,8.52E-2,1E0,1E0,1E0,7.01E0,3.06E0,1.79E2,4.64E-2,3.21E0,4.6789716E-3,9.67E0,6.08E-2,9.1E0,4.4E1,9.469897E-2,1.6694644E-2,9.667278E-2,1.2045772E-3,9.6266456E-2,-1.0182895E-2,-8.320918E-2,-1.1072385E-2,4.0328454E-2,-5.0812345E-2,-7.548573E-2,-8.488332E-3,8.852444E-2,2.9403849E-2,-7.3525496E-2,3.9409786E-3,1.3841897E-2,7.480123E-2,9.525678E-3,-5.961428E-2,7.63143E-2,-7.5063086E-3],"split_indices":[17,0,0,15,15,0,0,6,0,4,4,4,10,0,0,23,5,3,7,10,9,15,12,0,4,21,0,21,4,15,13,0,0,0,0,0,0,0,0,0,0,0,0,0,0,0,0,0,0,0,0,0,0],"split_type":[0,0,0,0,0,0,0,0,0,0,0,0,0,0,0,0,0,0,0,0,0,0,0,0,0,0,0,0,0,0,0,0,0,0,0,0,0,0,0,0,0,0,0,0,0,0,0,0,0,0,0,0,0],"sum_hessian":[6.6401013E2,4.5527597E2,2.0873419E2,3.326331E2,1.2264288E2,1.2450384E0,2.0748915E2,3.194665E2,1.31665945E1,3.690107E1,8.574181E1,2.646077E2,5.4858772E1,1.2475597E0,1.1919035E1,1.6176958E1,2.0724112E1,7.5016975E1,1.0724835E1,8.938811E1,1.752196E2,2.9972977E1,2.4885798E1,1.046433E1,5.712627E0,1.8735466E1,1.988646E0,7.127822E1,3.7387528E0,4.483575E0,6.2412605E0,5.1489124E1,3.789898E1,1.7322072E2,1.9988804E0,2.5233553E1,4.7394233E0,1.8392708E1,6.493089E0,9.224378E0,1.2399528E0,4.467681E0,1.2449464E0,1.4995113E1,3.7403533E0,6.828923E1,2.9889936E0,1.2453692E0,2.4933836E0,2.7427156E0,1.7408596E0,4.9975266E0,1.2437339E0],"tree_param":{"num_deleted":"0","num_feature":"24","num_nodes":"53","size_leaf_vector":"1"}},{"base_weights":[4.0362063E-3,8.0491203E-1,-1.7336096E0,1.2546369E0,-5.014003E-1,-1.538333E-2,-8.7111555E-2,1.5447636E0,2.2366127E-1,1.591491E0,-1.1559043E0,1.6496576E0,-1.0866613E0,8.164425E-1,-1.3087355E0,1.7402796E0,-2.270706E-2,2.0960172E-1,-1.3498328E0,1.2906446E0,1.8229517E0,5.600962E-2,-7.450269E-2,1.216483E0,-8.93373E-1,-8.129332E-2,-3.5132828E-1,8.9802645E-2,2.968502E-2,8.602692E-1,-6.780241E-2,-1.4420035E0,6.330327E-1,8.228775E-2,-1.3993901E-2,9.195589E-2,-3.349942E-4,1.0487965E-2,7.413471E-2,-7.283001E-2,1.3605495E-2,-4.9908232E-2,3.933188E-2,-2.8292472E-2,5.7588227E-2,-7.681625E-2,-3.4507567E-3,6.437397E-2,-1.7101787E-2],"categories":[],"categories_nodes":[],"categories_segments":[],"categories_sizes":[],"default_left":[0,0,0,0,0,0,0,0,0,0,0,0,0,0,0,0,0,0,0,0,0,0,0,0,0,0,0,0,0,0,0,0,0,0,0,0,0,0,0,0,0,0,0,0,0,0,0,0,0],"id":2,"left_children":[1,3,5,7,9,-1,-1,11,13,15,17,19,21,23,25,27,-1,29,31,33,35,-1,-1,37,39,-1,41,-1,-1,43,-1,45,47,-1,-1,-1,-1,-1,-1,-1,-1,-1,-1,-1,-1,-1,-1,-1,-1],"loss_changes":[9.3685846E2,2.713479E2,2.0750122E0,1.0227545E2,1.6447618E2,0E0,0E0,7.564728E1,7.057172E1,9.52729E0,2.43871E1,1.3680664E1,1.1336913E1,3.924508E1,6.0254135E0,6.5810394E-1,0E0,1.3579851E1,1.5504395E1,4.91613E1,5.081665E0,0E0,0E0,1.1918724E1,7.7183027E0,0E0,5.703373E0,0E0,0E0,4.4844255E0,0E0,9.813583E0,3.146859E0,0E0,0E0,0E0,0E0,0E0,0E0,0E0,0E0,0E0,0E0,0E0,0E0,0E0,0E0,0E0,0E0],"parents":[2147483647,0,0,1,1,2,2,3,3,4,4,7,7,8,8,9,9,10,10,11,11,12,12,13,13,14,14,15,15,17,17,18,18,19,19,20,20,23,23,24,24,26,26,29,29,31,31,32,32],"right_children":[2,4,6,8,10,-1,-1,12,14,16,18,20,22,24,26,28,-1,30,32,34,36,-1,-1,38,40,-1,42,-1,-1,44,-1,46,48,-1,-1,-1,-1,-1,-1,-1,-1,-1,-1,-1,-1,-1,-1,-1,-1],"split_conditions":[7.14E-2,1E0,1.7E1,3.8E1,1E0,-1.538333E-2,-8.7111555E-2,1.362E1,1.739E-1,7.1E1,5.01E0,4.17E-2,1.9E1,9.428E1,9.23E-2,7.15E0,-2.270706E-2,4.55E-2,2.174E-1,9.734E1,1.227E1,5.600962E-2,-7.450269E-2,3.39E-2,2.174E-1,-8.129332E-2,2.99E-2,8.9802645E-2,2.968502E-2,2.4E0,-6.780241E-2,6.68E-2,4.047E1,8.228775E-2,-1.3993901E-2,9.195589E-2,-3.349942E-4,1.0487965E-2,7.413471E-2,-7.283001E-2,1.3605495E-2,-4.9908232E-2,3.933188E-2,-2.8292472E-2,5.7588227E-2,-7.681625E-2,-3.4507567E-3,6.437397E-2,-1.7101787E-2],"split_indices":[17,6,0,0,10,0,0,15,14,0,15,4,0,23,4,15,0,14,4,23,15,0,0,4,4,0,3,0,0,12,0,3,2,0,0,0,0,0,0,0,0,0,0,0,0,0,0,0,0],"split_type":[0,0,0,0,0,0,0,0,0,0,0,0,0,0,0,0,0,0,0,0,0,0,0,0,0,0,0,0,0,0,0,0,0,0,0,0,0,0,0,0,0,0,0,0,0,0,0,0,0],"sum_hessian":[6.712026E2,4.5981296E2,2.1138965E2,3.420833E2,1.17729645E2,1.4909028E0,2.0989876E2,2.665696E2,7.5513695E1,2.7705347E1,9.002429E1,2.5670975E2,9.859878E0,5.478736E1,2.0726334E1,2.5965986E1,1.7393595E0,1.1185209E1,7.883909E1,8.63228E1,1.7038693E2,1.2491541E0,8.6107235E0,4.4633194E1,1.0154168E1,1.5044729E1,5.681605E0,2.422134E1,1.7446468E0,8.219717E0,2.9654918E0,7.55978E1,3.241289E0,7.036475E1,1.5958049E1,1.6888951E2,1.4974245E0,9.708136E0,3.492506E1,6.67746E0,3.476708E0,3.7008436E0,1.9807612E0,1.235234E0,6.9844832E0,7.062691E1,4.970893E0,1.7478005E0,1.4934884E0],"tree_param":{"num_deleted":"0","num_feature":"24","num_nodes":"49","size_leaf_vector":"1"}},{"base_weights":[-1.2813527E-3,7.395496E-1,-8.35371E-2,1.2066092E0,-4.678146E-1,1.3184164E0,-1.1119412E0,2.282121E-1,-1.3655704E0,1.5370862E0,1.5396386E-1,4.935273E-2,-1.4834753E0,1.0653005E0,-9.3287086E-1,-1.4645356E0,1.2385566E-1,1.0994674E0,1.7447484E0,-1.4589142E0,1.3336643E0,-7.985558E-2,-8.877188E-3,1.806135E-1,1.5076176E0,-1.4852805E0,-1.21296905E-1,-1.5092653E0,-4.211999E-3,-3.9533712E-2,4.9533408E-2,7.391511E-2,-1.9312698E-2,8.867809E-2,4.968393E-2,-7.820009E-2,-6.9387886E-3,7.716065E-2,-2.864937E-2,3.468539E-2,-3.5866585E-2,7.794031E-2,1.0316254E-2,-7.798076E-2,-2.4052864E-2,-3.7079703E-2,7.319415E-2,-7.707856E-2,-5.1798183E-3],"categories":[],"categories_nodes":[],"categories_segments":[],"categories_sizes":[],"default_left":[0,0,0,0,0,0,0,0,0,0,0,0,0,0,0,0,0,0,0,0,0,0,0,0,0,0,0,0,0,0,0,0,0,0,0,0,0,0,0,0,0,0,0,0,0,0,0,0,0],"id":3,"left_children":[1,3,-1,5,7,9,11,13,15,17,19,-1,21,23,25,27,29,31,33,35,37,-1,-1,39,41,43,45,47,-1,-1,-1,-1,-1,-1,-1,-1,-1,-1,-1,-1,-1,-1,-1,-1,-1,-1,-1,-1,-1],"loss_changes":[8.2803516E2,2.6206448E2,0E0,8.821875E1,8.1588135E1,8.117297E1,1.3893539E1,7.303713E1,8.575455E0,2.2532837E1,1.00236244E2,0E0,1.785265E0,1.676479E1,1.3980394E1,3.1745377E0,4.32688E0,5.0827972E1,2.1496582E0,2.8766441E0,1.3013374E1,0E0,0E0,7.7072735E0,1.6027832E0,6.4601135E-1,1.47346115E1,2.1898422E0,0E0,0E0,0E0,0E0,0E0,0E0,0E0,0E0,0E0,0E0,0E0,0E0,0E0,0E0,0E0,0E0,0E0,0E0,0E0,0E0,0E0],"parents":[2147483647,0,0,1,1,3,3,4,4,5,5,6,6,7,7,8,8,9,9,10,10,12,12,13,13,14,14,15,15,16,16,17,17,18,18,19,19,20,20,23,23,24,24,25,25,26,26,27,27],"right_children":[2,4,-1,6,8,10,12,14,16,18,20,-1,22,24,26,28,30,32,34,36,38,-1,-1,40,42,44,46,48,-1,-1,-1,-1,-1,-1,-1,-1,-1,-1,-1,-1,-1,-1,-1,-1,-1,-1,-1,-1,-1],"split_conditions":[7.14E-2,4.1E1,-8.35371E-2,1.227E1,4.55E-2,1E0,1.9E1,6.63E0,5.88E-2,2.9E-3,2E0,4.935273E-2,1E0,5.19E-2,1E0,2.038E-1,6E0,9.734E1,4.55E-2,9E0,8.03E0,-7.985558E-2,-8.877188E-3,5.58E1,2.778E-1,4.88E-2,1.901E-1,2.9E1,-4.211999E-3,-3.9533712E-2,4.9533408E-2,7.391511E-2,-1.9312698E-2,8.867809E-2,4.968393E-2,-7.820009E-2,-6.9387886E-3,7.716065E-2,-2.864937E-2,3.468539E-2,-3.5866585E-2,7.794031E-2,1.0316254E-2,-7.798076E-2,-2.4052864E-2,-3.7079703E-2,7.319415E-2,-7.707856E-2,-5.1798183E-3],"split_indices":[17,0,0,15,14,6,0,15,3,4,5,0,5,4,7,4,5,23,14,13,15,0,0,23,1,3,4,22,0,0,0,0,0,0,0,0,0,0,0,0,0,0,0,0,0,0,0,0,0],"split_type":[0,0,0,0,0,0,0,0,0,0,0,0,0,0,0,0,0,0,0,0,0,0,0,0,0,0,0,0,0,0,0,0,0,0,0,0,0,0,0,0,0,0,0,0,0,0,0,0,0],"sum_hessian":[6.675054E2,4.627257E2,2.0477966E2,3.336546E2,1.290711E2,3.1871652E2,1.4938061E1,7.312408E1,5.594702E1,2.680584E2,5.0658108E1,1.9973356E0,1.2940725E1,4.253835E1,3.058573E1,5.24769E1,3.4701247E0,8.82913E1,1.7976714E2,2.1300093E1,2.9358017E1,1.1699701E1,1.2410245E0,1.4648314E1,2.7890034E1,1.7704668E1,1.28810625E1,5.0739212E1,1.7376845E0,1.7313267E0,1.738798E0,7.035652E1,1.7934774E1,1.7181438E2,7.952755E0,1.9558447E1,1.7416456E0,2.6622692E1,2.7353244E0,9.466511E0,5.181803E0,2.6644054E1,1.2459788E0,1.5969515E1,1.7351534E0,9.64072E0,3.240342E0,4.9504784E1,1.2344282E0],"tree_param":{"num_deleted":"0","num_feature":"24","num_nodes":"49","size_leaf_vector":"1"}},{"base_weights":[1.9160882E-2,8.449783E-1,-1.4131924E0,1.2379152E0,-4.072375E-1,6.0331553E-1,-1.5276837E0,1.3265761E0,-6.610241E-2,-1.4050158E0,4.1921932E-2,1.0692598E0,-5.7439495E-2,-1.5449294E0,-1.4303312E-1,1.5470483E0,8.4630156E-1,-7.8990065E-2,-6.772606E-1,9.1156906E-1,-1.089125E0,1.4108182E0,-1.8170988E-2,-1.5557795E0,-1.0144013E-2,-4.6411417E-2,2.7219012E-2,1.5794078E0,-5.4332703E-1,1.1632283E0,-3.4779418E-1,4.4241347E-3,-8.6950034E-1,1.306789E0,-6.900002E-2,-1.2643125E0,2.428547E-1,7.8338705E-2,3.1295057E-2,-1.5675623E0,-1.2105812E-2,8.0442116E-2,1.2621163E-2,3.3741777E-3,-5.2303184E-2,5.1742033E-3,7.43725E-2,-4.1122194E-2,6.63134E-2,-1.7436575E-2,-6.08592E-2,7.484808E-2,2.1661509E-2,-6.8719946E-2,2.0285444E-2,3.8492925E-2,-3.1331923E-2,-4.831226E-2,-7.922794E-2],"categories":[],"categories_nodes":[],"categories_segments":[],"categories_sizes":[],"default_left":[0,0,0,0,0,0,0,0,0,0,0,0,0,0,0,0,0,0,0,0,0,0,0,0,0,0,0,0,0,0,0,0,0,0,0,0,0,0,0,0,0,0,0,0,0,0,0,0,0,0,0,0,0,0,0,0,0,0,0],"id":4,"left_children":[1,3,5,7,9,11,13,15,-1,17,19,21,-1,23,25,27,29,-1,31,33,35,37,-1,39,-1,-1,-1,41,43,45,47,-1,49,51,-1,53,55,-1,-1,57,-1,-1,-1,-1,-1,-1,-1,-1,-1,-1,-1,-1,-1,-1,-1,-1,-1,-1,-1],"loss_changes":[7.854823E2,2.0774838E2,5.6989075E1,7.457446E1,4.54811E1,1.246538E1,5.2732544E0,3.1579285E1,0E0,2.9357262E0,7.069297E1,6.0867596E0,0E0,2.9920654E0,2.6278703E0,1.5176147E1,3.8222145E1,0E0,1.2323406E0,3.8577614E1,7.6007843E0,1.7037773E-1,0E0,3.105957E0,0E0,0E0,0E0,7.7454834E0,1.2899266E0,2.7058739E1,1.8356867E1,0E0,7.2821236E-1,5.190037E0,0E0,5.665802E0,2.5316486E0,0E0,0E0,7.4798584E-1,0E0,0E0,0E0,0E0,0E0,0E0,0E0,0E0,0E0,0E0,0E0,0E0,0E0,0E0,0E0,0E0,0E0,0E0,0E0],"parents":[2147483647,0,0,1,1,2,2,3,3,4,4,5,5,6,6,7,7,9,9,10,10,11,11,13,13,14,14,15,15,16,16,18,18,19,19,20,20,21,21,23,23,27,27,28,28,29,29,30,30,32,32,33,33,35,35,36,36,39,39],"right_children":[2,4,6,8,10,12,14,16,-1,18,20,22,-1,24,26,28,30,-1,32,34,36,38,-1,40,-1,-1,-1,42,44,46,48,-1,50,52,-1,54,56,-1,-1,58,-1,-1,-1,-1,-1,-1,-1,-1,-1,-1,-1,-1,-1,-1,-1,-1,-1,-1,-1],"split_conditions":[4.55E-2,1E0,2.6E1,7.14E-2,2E0,7.14E-2,2.609E-1,1E2,-6.610241E-2,4.14E0,6E1,2.8E-3,-5.7439495E-2,3E1,2.571E1,1E0,3E1,-7.8990065E-2,1.9E1,7.14E-2,1.538E-1,1.364E-1,-1.8170988E-2,7E0,-1.0144013E-2,-4.6411417E-2,2.7219012E-2,1E0,3E0,7.72E-2,2E0,4.4241347E-3,2E0,1.98E-2,-6.900002E-2,1.6E1,3.86E-2,7.8338705E-2,3.1295057E-2,1E0,-1.2105812E-2,8.0442116E-2,1.2621163E-2,3.3741777E-3,-5.2303184E-2,5.1742033E-3,7.43725E-2,-4.1122194E-2,6.63134E-2,-1.7436575E-2,-6.08592E-2,7.484808E-2,2.1661509E-2,-6.8719946E-2,2.0285444E-2,3.8492925E-2,-3.1331923E-2,-4.831226E-2,-7.922794E-2],"split_indices":[14,6,0,17,5,17,4,23,0,12,0,3,0,22,12,11,0,0,0,17,4,4,0,9,0,0,0,9,5,4,18,0,8,3,0,22,3,0,0,8,0,0,0,0,0,0,0,0,0,0,0,0,0,0,0,0,0,0,0],"split_type":[0,0,0,0,0,0,0,0,0,0,0,0,0,0,0,0,0,0,0,0,0,0,0,0,0,0,0,0,0,0,0,0,0,0,0,0,0,0,0,0,0,0,0,0,0,0,0,0,0,0,0,0,0,0,0,0,0,0,0],"sum_hessian":[6.6204266E2,4.2019247E2,2.4185016E2,3.198402E2,1.0035228E2,1.2764396E1,2.2908577E2,3.0959943E2,1.0240765E1,3.0490816E1,6.986146E1,1.0390846E1,2.37355E0,2.261533E2,2.9324622E0,2.1066945E2,9.8929985E1,2.3641932E1,6.848885E0,3.960429E1,3.025717E1,8.402826E0,1.9880193E0,2.241816E2,1.9717039E0,1.2053432E0,1.727119E0,2.0769867E2,2.9707787E0,7.8200516E1,2.0729465E1,1.482683E0,5.3662024E0,3.4145126E1,5.4591646E0,2.6785086E1,3.4720836E0,6.1790123E0,2.2238142E0,2.2199713E2,2.1844678E0,2.029838E2,4.714881E0,1.7320975E0,1.2386811E0,1.8629082E1,5.9571434E1,1.654667E1,4.1827927E0,2.9502544E0,2.4159477E0,2.7454649E1,6.6904764E0,2.5294697E1,1.4903892E0,2.2331505E0,1.2389333E0,7.6925435E0,2.143046E2],"tree_param":{"num_deleted":"0","num_feature":"24","num_nodes":"59","size_leaf_vector":"1"}},{"base_weights":[9.314269E-4,7.855172E-1,-1.3633732E0,9.640841E-1,-1.4488655E0,-8.4482E-1,-7.8811765E-2,1.0679499E0,-1.3647612E0,-6.800412E-1,-7.512858E-2,6.1636436E-1,-1.174288E0,1.5087743E0,3.7815937E-1,-7.834465E-2,5.269726E-3,1.0160458E-3,-5.0112665E-2,1.0370799E0,-5.6125015E-2,-1.2432432E0,4.3381568E-2,1.5315316E0,-5.598265E-2,-5.804311E-1,1.4783158E0,1.333012E0,-3.027458E-2,-1.3491579E0,1.3599008E-1,7.7288054E-2,4.741498E-3,-5.4139208E-2,7.897419E-3,7.72249E-2,-3.429735E-3,7.339586E-2,9.848411E-3,-6.88571E-2,-5.0739064E-3,5.1534124E-2,-4.086415E-2],"categories":[],"categories_nodes":[],"categories_segments":[],"categories_sizes":[],"default_left":[0,0,0,0,0,0,0,0,0,0,0,0,0,0,0,0,0,0,0,0,0,0,0,0,0,0,0,0,0,0,0,0,0,0,0,0,0,0,0,0,0,0,0],"id":5,"left_children":[1,3,5,7,9,11,-1,13,15,17,-1,19,21,23,25,-1,-1,-1,-1,27,-1,29,-1,31,-1,33,35,37,-1,39,41,-1,-1,-1,-1,-1,-1,-1,-1,-1,-1,-1,-1],"loss_changes":[6.908658E2,1.648889E2,2.4679535E1,9.3385345E1,2.4679565E-1,3.4777E1,0E0,1.1022858E2,5.117447E0,8.8530445E-1,0E0,1.1165173E1,9.254303E0,1.4992371E1,1.5209305E2,0E0,0E0,0E0,0E0,6.410405E0,0E0,8.448662E0,0E0,4.361023E0,0E0,2.886266E1,6.9707947E0,1.2556877E0,0E0,1.6980515E0,5.0585566E0,0E0,0E0,0E0,0E0,0E0,0E0,0E0,0E0,0E0,0E0,0E0,0E0],"parents":[2147483647,0,0,1,1,2,2,3,3,4,4,5,5,7,7,8,8,9,9,11,11,12,12,13,13,14,14,19,19,21,21,23,23,25,25,26,26,27,27,29,29,30,30],"right_children":[2,4,6,8,10,12,-1,14,16,18,-1,20,22,24,26,-1,-1,-1,-1,28,-1,30,-1,32,-1,34,36,38,-1,40,42,-1,-1,-1,-1,-1,-1,-1,-1,-1,-1,-1,-1],"split_conditions":[4.55E-2,7.14E-2,7.14E-2,1.362E1,2.95E1,1E0,-7.8811765E-2,2E0,1.099E-1,6.971E1,-7.512858E-2,5E0,2.308E-1,3.81E-1,1.259E-1,-7.834465E-2,5.269726E-3,1.0160458E-3,-5.0112665E-2,3E0,-5.6125015E-2,5.88E-2,4.3381568E-2,6E0,-5.598265E-2,4.75E0,7E0,2.639E-1,-3.027458E-2,2.9E1,1.348E1,7.7288054E-2,4.741498E-3,-5.4139208E-2,7.897419E-3,7.72249E-2,-3.429735E-3,7.339586E-2,9.848411E-3,-6.88571E-2,-5.0739064E-3,5.1534124E-2,-4.086415E-2],"split_indices":[14,17,17,15,2,10,0,10,1,23,0,18,4,1,4,0,0,0,0,7,0,3,0,7,0,12,22,1,0,22,12,0,0,0,0,0,0,0,0,0,0,0,0],"split_type":[0,0,0,0,0,0,0,0,0,0,0,0,0,0,0,0,0,0,0,0,0,0,0,0,0,0,0,0,0,0,0,0,0,0,0,0,0,0,0,0,0,0,0],"sum_hessian":[6.434187E2,4.087681E2,2.3465057E2,3.7904425E2,2.9723848E1,6.973589E1,1.6491469E2,3.633791E2,1.5665162E1,2.8328366E0,2.689101E1,1.2670716E1,5.7065178E1,2.2097395E2,1.4240514E2,1.3713844E1,1.9513173E0,1.1878508E0,1.6449857E0,1.0527252E1,2.143464E0,5.5579414E1,1.4857643E0,2.1949089E2,1.483063E0,7.635113E1,6.605401E1,9.079851E0,1.4474006E0,5.1635967E1,3.9434469E0,2.1726315E2,2.2277408E0,4.516018E1,3.119095E1,6.3345432E1,2.708577E0,7.854945E0,1.224906E0,5.040175E1,1.2342209E0,1.9923384E0,1.9511085E0],"tree_param":{"num_deleted":"0","num_feature":"24","num_nodes":"43","size_leaf_vector":"1"}},{"base_weights":[-1.8693388E-2,6.579102E-1,-1.5206031E0,1.0023731E0,-6.370373E-1,-9.214361E-3,-7.647737E-2,1.3084139E0,4.3091863E-1,-8.608114E-1,1.1293927E0,-1.8402305E-1,1.4381231E0,-6.2466383E-1,1.5083202E0,2.7748457E-1,-1.1386689E0,-1.3121781E-2,1.3761053E0,7.335983E-2,-1.2735294E0,1.549873E0,9.8678327E-1,-9.4742435E-1,6.1089134E-1,4.628671E-1,1.562261E0,6.554159E-1,-5.991469E-2,-1.2724016E0,3.7884218E-1,7.6255016E-2,1.1048627E-2,1.7999504E-2,-7.463757E-2,7.963496E-2,4.1098554E-2,1.7438637E-2,7.497781E-2,-6.653464E-2,-1.8124228E-2,6.284829E-2,-2.5412837E-2,5.3822596E-2,-1.5902968E-2,1.4507944E-2,7.9530574E-2,-1.3902961E-2,5.221383E-2,-6.795226E-2,-1.4199922E-2,4.8570964E-2,-2.9117903E-2],"categories":[],"categories_nodes":[],"categories_segments":[],"categories_sizes":[],"default_left":[0,0,0,0,0,0,0,0,0,0,0,0,0,0,0,0,0,0,0,0,0,0,0,0,0,0,0,0,0,0,0,0,0,0,0,0,0,0,0,0,0,0,0,0,0,0,0,0,0,0,0,0,0],"id":6,"left_children":[1,3,5,7,9,-1,-1,11,13,15,17,19,21,23,25,27,29,-1,31,-1,33,35,37,39,41,43,45,47,-1,49,51,-1,-1,-1,-1,-1,-1,-1,-1,-1,-1,-1,-1,-1,-1,-1,-1,-1,-1,-1,-1,-1,-1],"loss_changes":[6.458562E2,1.9609718E2,2.0774536E0,6.0036285E1,3.7607166E1,0E0,0E0,4.3852875E1,1.4007904E2,2.651295E1,4.0879784E0,3.585398E1,8.925018E0,2.5504423E1,2.707672E0,1.029784E1,1.4032852E1,0E0,1.2772617E0,0E0,4.8048153E0,3.815277E0,1.3835117E1,1.0715809E1,1.0438961E1,2.453557E0,1.6097412E0,5.453749E0,0E0,4.8888397E0,4.084831E0,0E0,0E0,0E0,0E0,0E0,0E0,0E0,0E0,0E0,0E0,0E0,0E0,0E0,0E0,0E0,0E0,0E0,0E0,0E0,0E0,0E0,0E0],"parents":[2147483647,0,0,1,1,2,2,3,3,4,4,7,7,8,8,9,9,10,10,11,11,12,12,13,13,14,14,15,15,16,16,18,18,20,20,21,21,22,22,23,23,24,24,25,25,26,26,27,27,29,29,30,30],"right_children":[2,4,6,8,10,-1,-1,12,14,16,18,20,22,24,26,28,30,-1,32,-1,34,36,38,40,42,44,46,48,-1,50,52,-1,-1,-1,-1,-1,-1,-1,-1,-1,-1,-1,-1,-1,-1,-1,-1,-1,-1,-1,-1,-1,-1],"split_conditions":[7.14E-2,5.3E1,1.7E1,2E0,6.68E-2,-9.214361E-3,-7.647737E-2,5E-2,1.202E-1,1E0,1.46E-2,9.514E1,1E2,1E0,1.282E-1,4.55E-2,1.935E-1,-1.3121781E-2,7.056E1,7.335983E-2,3.008E1,4.55E-2,1.654E-1,1E0,3.341E1,1.017E-1,1.444E-1,3.39E-2,-5.991469E-2,9E0,4.047E1,7.6255016E-2,1.1048627E-2,1.7999504E-2,-7.463757E-2,7.963496E-2,4.1098554E-2,1.7438637E-2,7.497781E-2,-6.653464E-2,-1.8124228E-2,6.284829E-2,-2.5412837E-2,5.3822596E-2,-1.5902968E-2,1.4507944E-2,7.9530574E-2,-1.3902961E-2,5.221383E-2,-6.795226E-2,-1.4199922E-2,4.8570964E-2,-2.9117903E-2],"split_indices":[17,0,0,10,3,0,0,1,4,10,4,23,23,7,1,14,4,0,23,0,2,14,4,8,2,1,4,4,0,18,2,0,0,0,0,0,0,0,0,0,0,0,0,0,0,0,0,0,0,0,0,0,0],"split_type":[0,0,0,0,0,0,0,0,0,0,0,0,0,0,0,0,0,0,0,0,0,0,0,0,0,0,0,0,0,0,0,0,0,0,0,0,0,0,0,0,0,0,0,0,0,0,0,0,0,0,0,0,0],"sum_hessian":[6.3357715E2,4.371879E2,1.9638925E2,3.4550714E2,9.168076E1,1.4493986E0,1.9493985E2,2.2416602E2,1.2134112E2,8.182742E1,9.853342E0,1.7891157E1,2.0627486E2,6.1503437E1,5.983768E1,1.6055277E1,6.577215E1,1.474007E0,8.379335E0,6.974371E0,1.0916787E1,1.6338695E2,4.2887905E1,4.8949657E1,1.2553779E1,3.405963E0,5.6431717E1,1.3224504E1,2.8307724E0,6.0593758E1,5.1783853E0,7.138317E0,1.241018E0,1.2157285E0,9.701058E0,1.531862E2,1.0200753E1,1.9858904E1,2.3029001E1,2.8802532E1,2.0147125E1,7.8810005E0,4.672778E0,1.6954193E0,1.7105438E0,1.4751618E0,5.4956554E1,3.9727364E0,9.251768E0,5.536543E1,5.2283316E0,3.1968842E0,1.9815011E0],"tree_param":{"num_deleted":"0","num_feature":"24","num_nodes":"53","size_leaf_vector":"1"}},{"base_weights":[-6.1509134E-3,6.394774E-1,-7.451618E-2,1.0225339E0,-4.6267274E-1,1.1391914E0,-1.1649506E0,1.3114585E0,-9.819493E-1,1.3075008E0,-4.2327622E-1,-7.4611746E-2,3.5492565E-2,1.5012863E0,-2.6515886E-2,2.475803E-1,-1.1562426E0,9.1026723E-1,1.500536E0,-9.0925366E-1,5.3858954E-1,7.776438E-2,1.3248454E-2,8.142653E-1,-5.8399647E-2,-1.251455E0,5.0399643E-1,5.757577E-2,-2.9148106E-2,7.571182E-2,-1.607779E-2,3.17588E-2,-5.497701E-2,4.9071964E-2,-3.022824E-2,5.264901E-2,-2.1032348E-2,-4.2969275E-2,-7.398141E-2,6.0522076E-2,-2.525251E-2],"categories":[],"categories_nodes":[],"categories_segments":[],"categories_sizes":[],"default_left":[0,0,0,0,0,0,0,0,0,0,0,0,0,0,0,0,0,0,0,0,0,0,0,0,0,0,0,0,0,0,0,0,0,0,0,0,0,0,0,0,0],"id":7,"left_children":[1,3,-1,5,7,9,11,13,15,17,19,-1,-1,21,-1,23,25,27,29,31,33,-1,-1,35,-1,37,39,-1,-1,-1,-1,-1,-1,-1,-1,-1,-1,-1,-1,-1,-1],"loss_changes":[6.0285187E2,1.8557005E2,0E0,8.443115E1,1.06095276E2,8.1992004E1,1.1479563E1,9.951645E0,1.9268387E1,2.0089752E1,1.4919791E1,0E0,0E0,1.1902733E0,0E0,1.0433776E1,1.2922134E1,3.455085E1,5.1491394E0,6.8348083E0,6.1568546E0,0E0,0E0,3.1051826E0,0E0,5.3329163E0,4.1258087E0,0E0,0E0,0E0,0E0,0E0,0E0,0E0,0E0,0E0,0E0,0E0,0E0,0E0,0E0],"parents":[2147483647,0,0,1,1,3,3,4,4,5,5,6,6,7,7,8,8,9,9,10,10,13,13,15,15,16,16,17,17,18,18,19,19,20,20,23,23,25,25,26,26],"right_children":[2,4,-1,6,8,10,12,14,16,18,20,-1,-1,22,-1,24,26,28,30,32,34,-1,-1,36,-1,38,40,-1,-1,-1,-1,-1,-1,-1,-1,-1,-1,-1,-1,-1,-1],"split_conditions":[7.14E-2,1E0,-7.451618E-2,1.362E1,1E0,1.739E-1,1.099E-1,3.686E1,5.01E0,4.17E-2,8.702E1,-7.4611746E-2,3.5492565E-2,8E0,-2.6515886E-2,1.111E-1,2.174E-1,3E0,2E0,9.09E-2,2E0,7.776438E-2,1.3248454E-2,2.674E-1,-5.8399647E-2,6.74E0,4.047E1,5.757577E-2,-2.9148106E-2,7.571182E-2,-1.607779E-2,3.17588E-2,-5.497701E-2,4.9071964E-2,-3.022824E-2,5.264901E-2,-2.1032348E-2,-4.2969275E-2,-7.398141E-2,6.0522076E-2,-2.525251E-2],"split_indices":[17,6,0,15,10,14,1,2,15,4,23,0,0,22,0,14,4,10,11,1,10,0,0,1,0,15,2,0,0,0,0,0,0,0,0,0,0,0,0,0,0],"split_type":[0,0,0,0,0,0,0,0,0,0,0,0,0,0,0,0,0,0,0,0,0,0,0,0,0,0,0,0,0,0,0,0,0,0,0,0,0,0,0,0,0],"sum_hessian":[6.271401E2,4.374253E2,1.8971475E2,3.246605E2,1.12764786E2,3.086781E2,1.5982415E1,2.5186943E1,8.757784E1,2.7880798E2,2.9870098E1,1.3780764E1,2.201652E0,2.3001137E1,2.1858058E0,1.0821128E1,7.6756714E1,9.304753E1,1.8576047E2,1.9880354E1,9.989744E0,2.1791311E1,1.2098267E0,8.030945E0,2.7901828E0,7.282645E1,3.9302723E0,8.030258E1,1.2744949E1,1.8454184E2,1.2186229E0,1.9242774E0,1.7956078E1,7.3023357E0,2.6874087E0,6.85346E0,1.177485E0,2.8544636E1,4.428181E1,2.1943758E0,1.7358967E0],"tree_param":{"num_deleted":"0","num_feature":"24","num_nodes":"41","size_leaf_vector":"1"}},{"base_weights":[-1.3992072E-2,6.055342E-1,-1.4494067E0,9.3807656E-1,-5.8521944E-1,-6.825299E-3,-7.2937556E-2,1.0513006E0,-1.3181778E0,4.3519035E-1,-9.509282E-1,6.6761976E-1,1.4841928E0,-7.286397E-2,4.0548136E-3,8.7982404E-1,-1.1517206E0,-1.0727943E0,7.0378786E-1,1.3658237E0,2.530432E-1,1.5003235E0,-5.2753645E-3,-2.8568005E-2,1.1076031E0,-1.7734578E-2,-6.3175984E-2,-1.2109597E0,-8.889338E-2,-1.0047146E-2,5.8609486E-2,7.2186716E-2,8.67149E-3,-1.917341E-2,5.9316117E-2,7.531233E-2,2.0039886E-2,6.6490516E-2,2.414739E-2,-6.2491786E-2,8.978017E-3,4.2714387E-2,-2.298944E-2],"categories":[],"categories_nodes":[],"categories_segments":[],"categories_sizes":[],"default_left":[0,0,0,0,0,0,0,0,0,0,0,0,0,0,0,0,0,0,0,0,0,0,0,0,0,0,0,0,0,0,0,0,0,0,0,0,0,0,0,0,0,0,0],"id":8,"left_children":[1,3,5,7,9,-1,-1,11,13,15,17,19,21,-1,-1,23,25,27,29,31,33,35,-1,-1,37,-1,-1,39,41,-1,-1,-1,-1,-1,-1,-1,-1,-1,-1,-1,-1,-1,-1],"loss_changes":[5.5168726E2,1.7214958E2,2.095398E0,8.802344E1,3.594753E1,0E0,0E0,5.2738556E1,3.3588257E0,1.9223766E1,1.4953831E1,4.982081E1,4.0350037E0,0E0,0E0,7.484133E0,9.37624E-2,8.861458E0,2.53827E0,5.726898E0,6.578166E1,3.7145996E-1,0E0,0E0,1.8916645E0,0E0,0E0,3.3476105E0,3.6123407E0,0E0,0E0,0E0,0E0,0E0,0E0,0E0,0E0,0E0,0E0,0E0,0E0,0E0,0E0],"parents":[2147483647,0,0,1,1,2,2,3,3,4,4,7,7,8,8,9,9,10,10,11,11,12,12,15,15,16,16,17,17,18,18,19,19,20,20,21,21,24,24,27,27,28,28],"right_children":[2,4,6,8,10,-1,-1,12,14,16,18,20,22,-1,-1,24,26,28,30,32,34,36,-1,-1,38,-1,-1,40,42,-1,-1,-1,-1,-1,-1,-1,-1,-1,-1,-1,-1,-1,-1],"split_conditions":[7.14E-2,5.3E1,1.7E1,1.362E1,5.18E0,-6.825299E-3,-7.2937556E-2,1.364E-1,1E0,9.38E-2,8.52E-2,4.56E0,1E0,-7.286397E-2,4.0548136E-3,2.9E-3,3.1E1,1.654E-1,4.469E1,4.55E-2,1E0,7E-1,-5.2753645E-3,-2.8568005E-2,5.963E1,-1.7734578E-2,-6.3175984E-2,3.7E1,3.593E1,-1.0047146E-2,5.8609486E-2,7.2186716E-2,8.67149E-3,-1.917341E-2,5.9316117E-2,7.531233E-2,2.0039886E-2,6.6490516E-2,2.414739E-2,-6.2491786E-2,8.978017E-3,4.2714387E-2,-2.298944E-2],"split_indices":[17,0,0,15,15,0,0,4,5,14,3,15,11,0,0,4,2,4,2,14,7,4,0,0,23,0,0,8,2,0,0,0,0,0,0,0,0,0,0,0,0,0,0],"split_type":[0,0,0,0,0,0,0,0,0,0,0,0,0,0,0,0,0,0,0,0,0,0,0,0,0,0,0,0,0,0,0,0,0,0,0,0,0,0,0,0,0,0,0],"sum_hessian":[6.183904E2,4.3236108E2,1.860293E2,3.381406E2,9.422049E1,1.4249867E0,1.8460431E2,3.2249127E2,1.5649309E1,2.4808685E1,6.9411804E1,1.7231096E2,1.5018033E2,1.4196575E1,1.452733E0,1.972699E1,5.081695E0,6.4978E1,4.4338098E0,6.3341187E1,1.0896977E2,1.4872742E2,1.4529142E0,2.4716523E0,1.7255337E1,1.1384103E0,3.9432845E0,5.6774593E1,8.2034025E0,1.7072374E0,2.7265723E0,5.925848E1,4.0827084E0,6.513546E1,4.3834312E1,1.4756259E2,1.164813E0,1.1895062E1,5.360275E0,5.5328884E1,1.4457108E0,1.9475365E0,6.255866E0],"tree_param":{"num_deleted":"0","num_feature":"24","num_nodes":"43","size_leaf_vector":"1"}},{"base_weights":[-1.683174E-2,5.8209294E-1,-1.4161696E0,1.009731E0,-3.6672235E-1,-2.1251787E-2,-7.10178E-2,1.1984919E0,2.820655E-2,6.234022E-1,-7.524278E-1,1.2881653E0,-9.0929365E-1,-1.1512402E0,1.0297916E0,9.866449E-1,-1.0896746E0,-9.969449E-1,3.9057738E-1,1.3122331E0,-6.1256837E-2,-6.679558E-2,4.021791E-2,-1.3553725E0,-2.0115387E-1,1.3437829E0,-1.2079411E-1,1.460644E-1,1.3294172E0,-6.353206E-2,-1.935233E-2,-1.0946916E0,8.786678E-1,-6.4613456E-1,7.916118E-1,4.9844336E-2,7.317659E-2,-6.990676E-2,-1.9360846E-2,5.5963308E-2,-5.1810134E-2,6.880017E-2,2.1556018E-2,3.551239E-2,-2.4611093E-2,-1.2969278E-2,5.0977655E-2,4.295091E-2,7.419581E-2,-3.3448804E-2,-6.265772E-2,6.505161E-2,-6.5076286E-3,-5.603472E-2,2.8496593E-2,5.3955365E-2,-2.8442344E-2],"categories":[],"categories_nodes":[],"categories_segments":[],"categories_sizes":[],"default_left":[0,0,0,0,0,0,0,0,0,0,0,0,0,0,0,0,0,0,0,0,0,0,0,0,0,0,0,0,0,0,0,0,0,0,0,0,0,0,0,0,0,0,0,0,0,0,0,0,0,0,0,0,0,0,0,0,0],"id":9,"left_children":[1,3,5,7,9,-1,-1,11,13,15,17,19,21,23,25,27,29,31,33,35,-1,-1,-1,37,39,41,43,45,47,-1,-1,49,51,53,55,-1,-1,-1,-1,-1,-1,-1,-1,-1,-1,-1,-1,-1,-1,-1,-1,-1,-1,-1,-1,-1,-1],"loss_changes":[5.035352E2,1.7109E2,1.4346313E-1,5.3750824E1,5.0670547E1,0E0,0E0,4.718643E1,5.77088E1,2.4347103E1,2.6955528E1,1.5757996E1,8.766105E0,4.0804234E0,9.700914E0,8.847557E0,4.0055275E-1,1.5369186E1,7.7745543E0,9.619324E0,0E0,0E0,0E0,2.1630096E-1,6.8314757E0,1.9161224E-2,2.3800447E0,3.881563E0,3.3634567E-1,0E0,0E0,4.230446E0,2.0642736E0,3.7685456E0,5.71651E0,0E0,0E0,0E0,0E0,0E0,0E0,0E0,0E0,0E0,0E0,0E0,0E0,0E0,0E0,0E0,0E0,0E0,0E0,0E0,0E0,0E0,0E0],"parents":[2147483647,0,0,1,1,2,2,3,3,4,4,7,7,8,8,9,9,10,10,11,11,12,12,13,13,14,14,15,15,16,16,17,17,18,18,19,19,23,23,24,24,25,25,26,26,27,27,28,28,31,31,32,32,33,33,34,34],"right_children":[2,4,6,8,10,-1,-1,12,14,16,18,20,22,24,26,28,30,32,34,36,-1,-1,-1,38,40,42,44,46,48,-1,-1,50,52,54,56,-1,-1,-1,-1,-1,-1,-1,-1,-1,-1,-1,-1,-1,-1,-1,-1,-1,-1,-1,-1,-1,-1],"split_conditions":[7.14E-2,3.8E1,1.6E1,1E0,5.26E0,-2.1251787E-2,-7.10178E-2,1.362E1,2E0,1.111E-1,1.818E-1,3.684E-1,7.51E-2,5E0,6.74E0,4.64E-2,7.332E1,8.52E-2,1.282E-1,2.9E-3,-6.1256837E-2,-6.679558E-2,4.021791E-2,3E0,6.51E0,3.056E-1,1.36E0,2.94E-2,1.111E-1,-6.353206E-2,-1.935233E-2,6.63E0,7.23E0,1.11E-2,9.9E1,4.9844336E-2,7.317659E-2,-6.990676E-2,-1.9360846E-2,5.5963308E-2,-5.1810134E-2,6.880017E-2,2.1556018E-2,3.551239E-2,-2.4611093E-2,-1.2969278E-2,5.0977655E-2,4.295091E-2,7.419581E-2,-3.3448804E-2,-6.265772E-2,6.505161E-2,-6.5076286E-3,-5.603472E-2,2.8496593E-2,5.3955365E-2,-2.8442344E-2],"split_indices":[17,0,0,6,15,0,0,15,5,14,4,1,1,13,15,4,23,3,1,4,0,0,0,18,15,1,21,3,4,0,0,15,15,16,0,0,0,0,0,0,0,0,0,0,0,0,0,0,0,0,0,0,0,0,0,0,0],"split_type":[0,0,0,0,0,0,0,0,0,0,0,0,0,0,0,0,0,0,0,0,0,0,0,0,0,0,0,0,0,0,0,0,0,0,0,0,0,0,0,0,0,0,0,0,0,0,0,0,0,0,0,0,0,0,0,0,0],"sum_hessian":[5.988235E2,4.1975146E2,1.79072E2,2.8929834E2,1.3045312E2,1.1844314E0,1.7788757E2,2.4245062E2,4.68477E1,3.6398964E1,9.405416E1,2.3292975E2,9.520884E0,2.1445032E1,2.5402666E1,3.0380995E1,6.0179706E0,7.758467E1,1.6469492E1,2.3119368E2,1.7360618E0,7.7995863E0,1.721297E0,1.7301182E1,4.1438518E0,1.9824663E1,5.578003E0,9.213313E0,2.116768E1,4.1426024E0,1.8753681E0,7.413739E1,3.447281E0,4.423404E0,1.2046088E1,7.741964E1,1.5377405E2,1.6143995E1,1.1571864E0,1.4735081E0,2.6703434E0,1.8658272E1,1.1663903E0,1.4412048E0,4.136798E0,6.772669E0,2.4406447E0,6.85536E0,1.4312322E1,2.1526745E1,5.2610645E1,2.2257612E0,1.2215197E0,3.238164E0,1.18524E0,1.0115303E1,1.9307853E0],"tree_param":{"num_deleted":"0","num_feature":"24","num_nodes":"57","size_leaf_vector":"1"}},{"base_weights":[2.6518838E-2,5.976622E-1,-1.3800064E0,9.043818E-1,-5.397792E-1,-5.649391E-3,-6.949397E-2,9.8953384E-1,-1.0522184E0,-7.6562816E-1,9.6904576E-1,1.1823132E0,7.27514E-2,4.8711818E-2,-1.3152821E0,-9.759739E-1,5.969324E-1,-2.3617668E-2,1.2864394E0,1.2362558E0,-9.135088E-2,1.3295759E0,-7.6849926E-1,-2.0424323E-2,-6.839937E-2,-3.4724283E-1,-1.1792403E0,8.712957E-1,-4.5835465E-2,7.019242E-2,1.1527787E-2,6.448687E-2,8.334062E-3,6.4760216E-2,-4.1579176E-2,6.976696E-2,1.0289957E-2,-6.854807E-2,3.3004389E-3,-3.176053E-2,6.3125655E-2,2.4352303E-2,-6.138099E-2,6.2051296E-2,-6.065131E-3],"categories":[],"categories_nodes":[],"categories_segments":[],"categories_sizes":[],"default_left":[0,0,0,0,0,0,0,0,0,0,0,0,0,0,0,0,0,0,0,0,0,0,0,0,0,0,0,0,0,0,0,0,0,0,0,0,0,0,0,0,0,0,0,0,0],"id":10,"left_children":[1,3,5,7,9,-1,-1,11,13,15,17,19,21,-1,23,25,27,-1,29,31,33,35,37,-1,-1,39,41,43,-1,-1,-1,-1,-1,-1,-1,-1,-1,-1,-1,-1,-1,-1,-1,-1,-1],"loss_changes":[4.7587405E2,1.474588E2,1.9830933E0,5.638382E1,3.1444311E1,0E0,0E0,5.626358E1,8.924784E0,2.3203526E1,6.176157E0,1.8207855E1,6.0718094E1,0E0,6.805229E-2,8.376869E0,5.439705E0,0E0,9.462662E-1,1.4242401E1,1.3016253E1,1.412983E0,1.7413498E1,0E0,0E0,9.245185E0,4.752495E0,3.810646E0,0E0,0E0,0E0,0E0,0E0,0E0,0E0,0E0,0E0,0E0,0E0,0E0,0E0,0E0,0E0,0E0,0E0],"parents":[2147483647,0,0,1,1,2,2,3,3,4,4,7,7,8,8,9,9,10,10,11,11,12,12,14,14,15,15,16,16,18,18,19,19,20,20,21,21,22,22,25,25,26,26,27,27],"right_children":[2,4,6,8,10,-1,-1,12,14,16,18,20,22,-1,24,26,28,-1,30,32,34,36,38,-1,-1,40,42,44,-1,-1,-1,-1,-1,-1,-1,-1,-1,-1,-1,-1,-1,-1,-1,-1,-1],"split_conditions":[7.14E-2,5.4E1,1.7E1,1.362E1,6.45E-2,-5.649391E-3,-6.949397E-2,1E0,1.9E1,1.935E-1,2.04E-2,3.243E-1,1E0,4.8711818E-2,3.159E1,5.49E0,8.54E0,-2.3617668E-2,6.791E1,4.55E-2,1E0,3.708E1,3.06E0,-2.0424323E-2,-6.839937E-2,1.111E-1,3.008E1,9.9E1,-4.5835465E-2,7.019242E-2,1.1527787E-2,6.448687E-2,8.334062E-3,6.4760216E-2,-4.1579176E-2,6.976696E-2,1.0289957E-2,-6.854807E-2,3.3004389E-3,-3.176053E-2,6.3125655E-2,2.4352303E-2,-6.138099E-2,6.2051296E-2,-6.065131E-3],"split_indices":[17,0,0,15,3,0,0,6,0,4,4,1,10,0,2,15,15,0,23,14,21,2,12,0,0,4,2,0,0,0,0,0,0,0,0,0,0,0,0,0,0,0,0,0,0],"split_type":[0,0,0,0,0,0,0,0,0,0,0,0,0,0,0,0,0,0,0,0,0,0,0,0,0,0,0,0,0,0,0,0,0,0,0,0,0,0,0,0,0,0,0,0,0],"sum_hessian":[5.9035187E2,4.2026947E2,1.7008243E2,3.3117148E2,8.9097984E1,1.4113027E0,1.6867113E2,3.178335E2,1.3337988E1,7.792615E1,1.1171835E1,2.6237262E2,5.5460857E1,1.2219018E0,1.2116086E1,6.775081E1,1.0175336E1,1.9279753E0,9.243859E0,2.5174023E2,1.0632398E1,2.2005007E1,3.3455853E1,1.1461936E0,1.09698925E1,1.721396E1,5.053685E1,8.973218E0,1.2021179E0,8.022274E0,1.2215858E0,2.3955595E2,1.2184277E1,3.439683E0,7.1927147E0,2.0560177E1,1.4448316E0,1.9055876E1,1.4399976E1,1.5115383E1,2.0985775E0,1.17007E0,4.936678E1,6.35557E0,2.6176486E0],"tree_param":{"num_deleted":"0","num_feature":"24","num_nodes":"45","size_leaf_vector":"1"}},{"base_weights":[2.10014E-3,5.6565577E-1,-1.358907E0,9.085621E-1,-3.8296026E-1,-2.0595092E-2,-6.8153724E-2,1.0032854E0,-9.949065E-1,1.2450788E0,-8.992484E-1,1.2083973E0,2.7157483E-1,-6.740722E-2,4.363748E-2,1.3513633E0,-2.7960232E-2,1.7995983E-1,-1.0719199E0,8.69622E-1,1.3822548E0,-6.982139E-1,7.4527377E-1,1.3890783E0,2.526002E-2,7.1853614E-1,-3.816252E-1,-1.137433E0,3.8332723E-2,6.425951E-2,-9.4522685E-3,6.9942094E-2,-1.8234529E-3,2.2207981E-2,-5.592019E-2,5.5062898E-2,2.929676E-3,7.099562E-2,2.1645255E-2,-2.5688237E-2,5.3433944E-2,3.180365E-2,-5.2961316E-2,-6.053385E-2,2.628759E-2],"categories":[],"categories_nodes":[],"categories_segments":[],"categories_sizes":[],"default_left":[0,0,0,0,0,0,0,0,0,0,0,0,0,0,0,0,0,0,0,0,0,0,0,0,0,0,0,0,0,0,0,0,0,0,0,0,0,0,0,0,0,0,0,0,0],"id":11,"left_children":[1,3,5,7,9,-1,-1,11,13,15,17,19,21,-1,-1,23,-1,25,27,29,31,33,35,37,-1,39,41,43,-1,-1,-1,-1,-1,-1,-1,-1,-1,-1,-1,-1,-1,-1,-1,-1,-1],"loss_changes":[4.4473706E2,1.3373009E2,1.08673096E-1,5.5354507E1,9.321961E1,0E0,0E0,4.2847473E1,1.0936093E1,5.8952675E0,1.5803635E1,1.2015015E1,3.0047789E1,0E0,0E0,1.1530304E-1,0E0,4.027953E0,9.587936E0,3.4911804E1,3.500885E0,1.0869444E1,1.0609613E1,9.109497E-2,0E0,3.4322448E0,5.313857E0,9.197128E0,0E0,0E0,0E0,0E0,0E0,0E0,0E0,0E0,0E0,0E0,0E0,0E0,0E0,0E0,0E0,0E0,0E0],"parents":[2147483647,0,0,1,1,2,2,3,3,4,4,7,7,8,8,9,9,10,10,11,11,12,12,15,15,17,17,18,18,19,19,20,20,21,21,22,22,23,23,25,25,26,26,27,27],"right_children":[2,4,6,8,10,-1,-1,12,14,16,18,20,22,-1,-1,24,-1,26,28,30,32,34,36,38,-1,40,42,44,-1,-1,-1,-1,-1,-1,-1,-1,-1,-1,-1,-1,-1,-1,-1,-1,-1],"split_conditions":[7.14E-2,1E0,1.6E1,1.362E1,1E0,-2.0595092E-2,-6.8153724E-2,3.8E1,1.099E-1,9E1,4.96E0,4.17E-2,4.55E-2,-6.740722E-2,4.363748E-2,6E1,-2.7960232E-2,5E0,1E1,2E0,1.227E1,4.711E1,1.564E1,3.667E1,2.526002E-2,2.83E0,5.429E1,2.308E-1,3.8332723E-2,6.425951E-2,-9.4522685E-3,6.9942094E-2,-1.8234529E-3,2.2207981E-2,-5.592019E-2,5.5062898E-2,2.929676E-3,7.099562E-2,2.1645255E-2,-2.5688237E-2,5.3433944E-2,3.180365E-2,-5.2961316E-2,-6.053385E-2,2.628759E-2],"split_indices":[17,6,0,15,10,0,0,0,1,0,15,4,4,0,0,0,0,22,18,10,15,23,12,2,0,12,23,4,0,0,0,0,0,0,0,0,0,0,0,0,0,0,0,0,0],"split_type":[0,0,0,0,0,0,0,0,0,0,0,0,0,0,0,0,0,0,0,0,0,0,0,0,0,0,0,0,0,0,0,0,0,0,0,0,0,0,0,0,0,0,0,0,0],"sum_hessian":[5.778352E2,4.090452E2,1.6879E2,3.0047244E2,1.08572754E2,1.176971E0,1.6761302E2,2.866792E2,1.3793245E1,2.5801115E1,8.2771645E1,2.2340361E2,6.3275593E1,1.1833321E1,1.9599252E0,2.4602865E1,1.1982503E0,1.1410853E1,7.136079E1,7.780205E1,1.4560156E2,2.060916E1,4.2666435E1,2.2938822E1,1.6640432E0,5.682088E0,5.7287655E0,6.9273735E1,2.0870512E0,5.5716988E1,2.2085056E1,1.4393279E2,1.6687832E0,5.5266824E0,1.5082478E1,2.7701744E1,1.4964691E1,2.1752369E1,1.1864523E0,1.153861E0,4.528227E0,2.3142495E0,3.414516E0,6.661231E1,2.661425E0],"tree_param":{"num_deleted":"0","num_feature":"24","num_nodes":"45","size_leaf_vector":"1"}},{"base_weights":[-2.6582219E-3,6.37123E-1,-1.1528721E0,9.432431E-1,-3.172058E-1,3.6203325E-1,-1.237158E0,1.0444387E0,-1.0166405E0,4.5884562E-1,-1.1518582E0,7.6530385E-1,-4.737256E-2,-1.2961192E0,-7.52344E-1,1.1145061E0,-1.1118318E0,-6.594113E-2,2.492903E-2,-9.209568E-1,9.140212E-1,-1.2387466E0,1.7577184E-2,1.153836E0,-3.15327E-2,-1.3057814E0,5.3141764E-3,-1.5026112E-1,-6.2339593E-2,7.1460634E-1,1.3069693E0,-1.5822109E-2,-5.914938E-2,-6.036482E-2,3.638265E-2,1.1421907E0,-5.2185412E-2,-4.950267E-3,-1.26781E0,6.6690125E-2,1.0099839E-2,-1.3160801E0,-3.1283575E-1,-7.2560245E-1,9.9932426E-1,5.3370703E-2,-2.8894199E-2,6.6017106E-2,-8.135203E-3,2.1443449E-2,-2.3162948E-2,6.1084636E-2,-6.827167E-3,-1.325418E-2,-6.439743E-2,-6.6047415E-2,-1.3975441E-2,-3.5760455E-2,1.1961385E-2,1.9218147E-2,-6.0632337E-2,6.9490336E-2,1.1251821E-2],"categories":[],"categories_nodes":[],"categories_segments":[],"categories_sizes":[],"default_left":[0,0,0,0,0,0,0,0,0,0,0,0,0,0,0,0,0,0,0,0,0,0,0,0,0,0,0,0,0,0,0,0,0,0,0,0,0,0,0,0,0,0,0,0,0,0,0,0,0,0,0,0,0,0,0,0,0,0,0,0,0,0,0],"id":12,"left_children":[1,3,5,7,9,11,13,15,17,19,21,23,-1,25,27,29,31,-1,-1,33,35,37,-1,39,-1,41,-1,43,-1,45,47,-1,-1,-1,49,51,-1,-1,53,-1,-1,55,57,59,61,-1,-1,-1,-1,-1,-1,-1,-1,-1,-1,-1,-1,-1,-1,-1,-1,-1,-1],"loss_changes":[4.224526E2,1.08066666E2,2.6646942E1,5.6505737E1,5.9044323E1,6.8444138E0,4.587494E0,4.147583E1,7.174103E0,3.069196E1,6.1584587E0,5.832894E0,0E0,2.4709473E0,6.8036966E0,1.8956879E1,1.2835693E-1,0E0,0E0,3.412284E0,1.7380516E1,1.2537384E0,0E0,1.0524454E0,0E0,1.3370667E0,0E0,8.480915E0,0E0,3.991244E1,3.6200562E0,0E0,0E0,0E0,9.438315E-1,3.5150566E0,0E0,0E0,4.7679138E-1,0E0,0E0,4.8330688E-1,8.524583E-1,5.0041127E0,9.9697495E-1,0E0,0E0,0E0,0E0,0E0,0E0,0E0,0E0,0E0,0E0,0E0,0E0,0E0,0E0,0E0,0E0,0E0,0E0],"parents":[2147483647,0,0,1,1,2,2,3,3,4,4,5,5,6,6,7,7,8,8,9,9,10,10,11,11,13,13,14,14,15,15,16,16,19,19,20,20,21,21,23,23,25,25,27,27,29,29,30,30,34,34,35,35,38,38,41,41,42,42,43,43,44,44],"right_children":[2,4,6,8,10,12,14,16,18,20,22,24,-1,26,28,30,32,-1,-1,34,36,38,-1,40,-1,42,-1,44,-1,46,48,-1,-1,-1,50,52,-1,-1,54,-1,-1,56,58,60,62,-1,-1,-1,-1,-1,-1,-1,-1,-1,-1,-1,-1,-1,-1,-1,-1,-1,-1],"split_conditions":[4.55E-2,1E0,2.4E1,1.362E1,6.51E0,7.14E-2,1.202E-1,7.14E-2,9.59E-2,2E0,2.245E-1,9.976E1,-4.737256E-2,7E0,7.14E-2,3.39E-2,2.1E1,-6.594113E-2,2.492903E-2,3.215E1,7.14E-2,1.7E1,1.7577184E-2,2.2E1,-3.15327E-2,9E0,5.3141764E-3,3.13E-2,-6.2339593E-2,9.934E1,1.227E1,-1.5822109E-2,-5.914938E-2,-6.036482E-2,2.8E1,3E0,-5.2185412E-2,-4.950267E-3,2.585E1,6.6690125E-2,1.0099839E-2,5.4E1,3.939E1,5.6E-3,4.469E1,5.3370703E-2,-2.8894199E-2,6.6017106E-2,-8.135203E-3,2.1443449E-2,-2.3162948E-2,6.1084636E-2,-6.827167E-3,-1.325418E-2,-6.439743E-2,-6.6047415E-2,-1.3975441E-2,-3.5760455E-2,1.1961385E-2,1.9218147E-2,-6.0632337E-2,6.9490336E-2,1.1251821E-2],"split_indices":[14,6,0,15,15,17,4,17,1,5,4,23,0,9,17,4,0,0,0,2,17,0,0,0,0,6,0,3,0,23,15,0,0,0,0,6,0,0,2,0,0,18,2,3,2,0,0,0,0,0,0,0,0,0,0,0,0,0,0,0,0,0,0],"split_type":[0,0,0,0,0,0,0,0,0,0,0,0,0,0,0,0,0,0,0,0,0,0,0,0,0,0,0,0,0,0,0,0,0,0,0,0,0,0,0,0,0,0,0,0,0,0,0,0,0,0,0,0,0,0,0,0,0,0,0,0,0,0,0],"sum_hessian":[5.720759E2,3.6789084E2,2.041851E2,2.7855148E2,8.9339355E1,1.0587952E1,1.9359715E2,2.653192E2,1.3232267E1,4.652818E1,4.2811176E1,8.412725E0,2.1752257E0,1.7111353E2,2.248362E1,2.5743698E2,7.8822184E0,1.1140186E1,2.092081E0,1.1287715E1,3.5240463E1,4.0638527E1,2.1726496E0,6.716727E0,1.695999E0,1.700111E2,1.1024334E0,1.0726273E1,1.1757347E1,8.517447E1,1.7226251E2,1.0945339E0,6.7876844E0,8.487896E0,2.7998192E0,3.193507E1,3.3053954E0,1.1200838E0,3.9518444E1,5.31123E0,1.4054964E0,1.6794377E2,2.0673182E0,7.3943715E0,3.331901E0,6.7046974E1,1.8127493E1,1.708099E2,1.4526074E0,1.6473856E0,1.1524335E0,3.0107801E1,1.8272676E0,1.0569015E0,3.8461544E1,1.6688567E2,1.0581181E0,1.0248404E0,1.042478E0,2.319377E0,5.0749946E0,1.6864543E0,1.6454467E0],"tree_param":{"num_deleted":"0","num_feature":"24","num_nodes":"63","size_leaf_vector":"1"}},{"base_weights":[2.1029996E-2,5.442807E-1,-1.3113885E0,8.679156E-1,-3.5307083E-1,-1.956112E-2,-6.5785475E-2,9.671221E-1,-1.1092913E0,6.4369375E-1,-8.040791E-1,1.158738E0,2.6925364E-1,-6.500112E-2,2.721653E-2,9.1451526E-1,-5.417065E-1,-8.9473057E-1,4.493068E-1,1.1792766E0,-5.6631953E-2,-5.126833E-1,7.7493066E-1,-3.9391544E-2,1.1290725E0,-9.096766E-1,2.7227355E-2,-9.5475996E-1,3.5524826E-2,5.602469E-2,-2.1253878E-2,4.4616953E-2,6.593635E-2,1.3277634E-2,-5.243821E-2,6.1492838E-2,2.13875E-2,6.7318045E-2,2.2909446E-2,-5.6927684E-3,-5.6963738E-2,-3.0996192E-2,-6.2080182E-2],"categories":[],"categories_nodes":[],"categories_segments":[],"categories_sizes":[],"default_left":[0,0,0,0,0,0,0,0,0,0,0,0,0,0,0,0,0,0,0,0,0,0,0,0,0,0,0,0,0,0,0,0,0,0,0,0,0,0,0,0,0,0,0],"id":13,"left_children":[1,3,5,7,9,-1,-1,11,13,15,17,19,21,-1,-1,23,25,27,29,31,-1,33,35,-1,37,39,-1,41,-1,-1,-1,-1,-1,-1,-1,-1,-1,-1,-1,-1,-1,-1,-1],"loss_changes":[3.9206058E2,1.17561104E2,1.15753174E-1,5.933403E1,4.894696E1,0E0,0E0,3.758023E1,5.330351E0,1.1447378E1,8.879738E0,1.1784149E1,2.5049393E1,0E0,0E0,1.1168547E1,3.2823498E0,7.4154778E0,3.8204277E0,7.6476746E0,0E0,1.0744579E1,5.51668E0,0E0,3.0863037E0,8.903537E-1,0E0,5.7443123E0,0E0,0E0,0E0,0E0,0E0,0E0,0E0,0E0,0E0,0E0,0E0,0E0,0E0,0E0,0E0],"parents":[2147483647,0,0,1,1,2,2,3,3,4,4,7,7,8,8,9,9,10,10,11,11,12,12,15,15,16,16,17,17,18,18,19,19,21,21,22,22,24,24,25,25,27,27],"right_children":[2,4,6,8,10,-1,-1,12,14,16,18,20,22,-1,-1,24,26,28,30,32,-1,34,36,-1,38,40,-1,42,-1,-1,-1,-1,-1,-1,-1,-1,-1,-1,-1,-1,-1,-1,-1],"split_conditions":[7.14E-2,1E0,1.6E1,1.362E1,5.47E0,-1.956112E-2,-6.5785475E-2,3.8E1,1.143E-1,8E0,2.038E-1,3.81E-1,6.58E-2,-6.500112E-2,2.721653E-2,1E0,2.188E-1,1E1,4.047E1,2.9E-3,-5.6631953E-2,6.167E1,6.295E1,-3.9391544E-2,3.347E1,1.2E1,2.7227355E-2,6E1,3.5524826E-2,5.602469E-2,-2.1253878E-2,4.4616953E-2,6.593635E-2,1.3277634E-2,-5.243821E-2,6.1492838E-2,2.13875E-2,6.7318045E-2,2.2909446E-2,-5.6927684E-3,-5.6963738E-2,-3.0996192E-2,-6.2080182E-2],"split_indices":[17,6,0,15,15,0,0,0,1,5,4,1,4,0,0,5,1,18,2,4,0,23,23,0,2,5,0,0,0,0,0,0,0,0,0,0,0,0,0,0,0,0,0],"split_type":[0,0,0,0,0,0,0,0,0,0,0,0,0,0,0,0,0,0,0,0,0,0,0,0,0,0,0,0,0,0,0,0,0,0,0,0,0,0,0,0,0,0,0],"sum_hessian":[5.6032104E2,4.0274973E2,1.5757132E2,2.9602094E2,1.06728806E2,1.1643193E0,1.56407E2,2.8236414E2,1.3656781E1,3.3114925E1,7.361388E1,2.210181E2,6.1346054E1,1.2436205E1,1.2205762E0,2.714238E1,5.972545E0,6.891568E1,4.698196E0,2.1953566E2,1.4824386E0,2.408663E1,3.7259422E1,2.7389603E0,2.440342E1,4.582703E0,1.3898422E0,6.6822014E1,2.0936708E0,2.4987001E0,2.1994958E0,7.421913E1,1.4531653E2,1.0030238E1,1.4056392E1,1.502677E1,2.2232653E1,1.7672678E1,6.7307415E0,1.3610365E0,3.2216666E0,3.2290314E1,3.4531696E1],"tree_param":{"num_deleted":"0","num_feature":"24","num_nodes":"43","size_leaf_vector":"1"}},{"base_weights":[-3.4690483E-3,5.02722E-1,-6.478331E-2,9.469742E-1,-1.2420224E-1,-1.2668198E-1,1.0390892E0,-6.67389E-1,1.0300425E0,6.1146773E-2,-9.1420346E-1,1.1925774E0,4.287974E-1,-2.1374434E-1,-1.0293012E0,1.220695E0,-3.4466013E-1,-6.474731E-2,4.4611353E-2,1.2190342E0,-3.9268415E-2,4.4423796E-2,1.1702104E0,-4.2788947E-1,4.6401915E-1,-1.1345241E0,5.1122284E-1,1.2908565E0,9.8832734E-2,-7.8313845E-1,3.6560126E-2,6.5973066E-2,4.345297E-2,2.5874704E-2,-3.8792137E-2,1.4437204E-3,6.291891E-2,5.7847607E-3,-5.1025398E-2,-4.886882E-3,6.0973015E-2,-5.919053E-2,3.3473175E-2,-1.3918541E-2,5.451758E-2,1.8802492E-2,6.5469556E-2,-4.063028E-2,4.9647074E-2,-5.6133803E-2,8.674296E-3],"categories":[],"categories_nodes":[],"categories_segments":[],"categories_sizes":[],"default_left":[0,0,0,0,0,0,0,0,0,0,0,0,0,0,0,0,0,0,0,0,0,0,0,0,0,0,0,0,0,0,0,0,0,0,0,0,0,0,0,0,0,0,0,0,0,0,0,0,0,0,0],"id":14,"left_children":[1,3,-1,5,7,9,11,13,15,-1,17,19,21,23,25,27,29,-1,-1,31,-1,33,35,37,39,41,43,45,47,49,-1,-1,-1,-1,-1,-1,-1,-1,-1,-1,-1,-1,-1,-1,-1,-1,-1,-1,-1,-1,-1],"loss_changes":[3.6070587E2,1.10476006E2,0E0,2.3078705E1,1.04274704E2,2.1551327E1,1.9515686E1,1.8324844E1,1.4380722E1,0E0,9.899153E0,9.867737E0,1.2637038E1,7.6568413E0,1.0722137E1,3.5716095E0,4.0008383E0,0E0,0E0,4.772644E0,0E0,1.21837225E1,1.4894981E0,1.2864866E1,5.5586596E0,6.0274887E0,2.4480195E0,2.5615692E-1,3.9436011E0,2.0285695E0,0E0,0E0,0E0,0E0,0E0,0E0,0E0,0E0,0E0,0E0,0E0,0E0,0E0,0E0,0E0,0E0,0E0,0E0,0E0,0E0,0E0],"parents":[2147483647,0,0,1,1,3,3,4,4,5,5,6,6,7,7,8,8,10,10,11,11,12,12,13,13,14,14,15,15,16,16,19,19,21,21,22,22,23,23,24,24,25,25,26,26,27,27,28,28,29,29],"right_children":[2,4,-1,6,8,10,12,14,16,-1,18,20,22,24,26,28,30,-1,-1,32,-1,34,36,38,40,42,44,46,48,50,-1,-1,-1,-1,-1,-1,-1,-1,-1,-1,-1,-1,-1,-1,-1,-1,-1,-1,-1,-1,-1],"split_conditions":[7.14E-2,2E0,-6.478331E-2,5E-2,1.481E-1,4.44E-2,3.8E1,1E0,4E0,6.1146773E-2,1E0,3.81E-1,1.935E-1,6.32E-2,1E1,6.4E1,7E-2,-6.474731E-2,4.4611353E-2,1E0,-3.9268415E-2,2.16E-2,1.31E-1,2.7E1,1E0,9.57E-2,2.48E-2,1.071E-1,1E0,2.308E-1,3.6560126E-2,6.5973066E-2,4.345297E-2,2.5874704E-2,-3.8792137E-2,1.4437204E-3,6.291891E-2,5.7847607E-3,-5.1025398E-2,-4.886882E-3,6.0973015E-2,-5.919053E-2,3.3473175E-2,-1.3918541E-2,5.451758E-2,1.8802492E-2,6.5469556E-2,-4.063028E-2,4.9647074E-2,-5.6133803E-2,8.674296E-3],"split_indices":[17,10,0,1,4,4,0,6,22,0,7,1,4,4,18,0,3,0,0,10,0,16,1,0,18,3,3,1,7,4,0,0,0,0,0,0,0,0,0,0,0,0,0,0,0,0,0,0,0,0,0],"split_type":[0,0,0,0,0,0,0,0,0,0,0,0,0,0,0,0,0,0,0,0,0,0,0,0,0,0,0,0,0,0,0,0,0,0,0,0,0,0,0,0,0,0,0,0,0,0,0,0,0,0,0],"sum_hessian":[5.4945905E2,3.952422E2,1.5421687E2,2.3102344E2,1.6421873E2,1.8224974E1,2.1279846E2,1.1195472E2,5.226401E1,6.512045E0,1.1712928E1,1.6927238E2,4.352608E1,5.038697E1,6.1567753E1,4.59969E1,6.2671127E0,9.9078E0,1.8051283E0,1.6741673E2,1.8556579E0,2.9363148E1,1.4162933E1,3.8569336E1,1.1817634E1,5.7878033E1,3.6897192E0,4.3147797E1,2.849105E0,4.645768E0,1.6213448E0,1.27934975E2,3.9481754E1,1.8856943E1,1.0506203E1,1.1108197E0,1.3052114E1,2.0536665E1,1.8032671E1,7.276985E0,4.540649E0,5.667345E1,1.2045842E0,1.7809166E0,1.9088026E0,1.2796108E0,4.1868183E1,1.45602E0,1.3930849E0,3.3006704E0,1.3450977E0],"tree_param":{"num_deleted":"0","num_feature":"24","num_nodes":"51","size_leaf_vector":"1"}},{"base_weights":[-1.5262211E-2,4.7828585E-1,-1.2638806E0,7.4748224E-1,-4.7577137E-1,-7.6875906E-3,-6.3726835E-2,8.3047676E-1,-1.1116489E0,-6.8131334E-1,8.812224E-1,9.9755937E-1,1.3204832E-1,-6.1837684E-2,-1.06245E-2,4.6093884E-1,-8.632394E-1,1.1420918E0,-1.7442076E-2,1.027133E0,-6.299475E-2,-9.161669E-1,8.2391137E-1,-2.5227463E-1,9.336499E-1,-3.1983402E-1,-1.1461668E0,6.708843E-2,-8.824017E-4,5.4208327E-2,7.225008E-3,-5.4317165E-2,3.1875387E-2,5.9844643E-2,-3.6974605E-2,-3.6059074E-2,3.627501E-2,6.2003773E-2,2.3122469E-2,1.3720396E-2,-5.3967834E-2,-5.972093E-2,-7.1938992E-3],"categories":[],"categories_nodes":[],"categories_segments":[],"categories_sizes":[],"default_left":[0,0,0,0,0,0,0,0,0,0,0,0,0,0,0,0,0,0,0,0,0,0,0,0,0,0,0,0,0,0,0,0,0,0,0,0,0,0,0,0,0,0,0],"id":15,"left_children":[1,3,5,7,9,-1,-1,11,13,15,17,19,21,-1,-1,23,25,27,-1,29,-1,31,33,35,37,39,41,-1,-1,-1,-1,-1,-1,-1,-1,-1,-1,-1,-1,-1,-1,-1,-1],"loss_changes":[3.2882236E2,9.857823E1,1.5921478E0,4.7007248E1,2.4245459E1,0E0,0E0,3.3299026E1,1.2210369E0,1.5814236E1,4.116681E0,1.6717438E1,4.169788E1,0E0,0E0,3.891599E0,9.525661E0,2.2917118E0,0E0,1.1350311E1,0E0,6.752737E0,2.1023342E1,2.865984E0,3.988967E-1,1.0865271E1,1.8557358E0,0E0,0E0,0E0,0E0,0E0,0E0,0E0,0E0,0E0,0E0,0E0,0E0,0E0,0E0,0E0,0E0],"parents":[2147483647,0,0,1,1,2,2,3,3,4,4,7,7,8,8,9,9,10,10,11,11,12,12,15,15,16,16,17,17,19,19,21,21,22,22,23,23,24,24,25,25,26,26],"right_children":[2,4,6,8,10,-1,-1,12,14,16,18,20,22,-1,-1,24,26,28,-1,30,-1,32,34,36,38,40,42,-1,-1,-1,-1,-1,-1,-1,-1,-1,-1,-1,-1,-1,-1,-1,-1],"split_conditions":[7.14E-2,5.3E1,1.7E1,1.362E1,6.68E-2,-7.6875906E-3,-6.3726835E-2,1E0,9.59E-2,3.035E1,8.14E0,3.81E-1,2E0,-6.1837684E-2,-1.06245E-2,1.529E-1,6.08E0,7.056E1,-1.7442076E-2,4.55E-2,-6.299475E-2,9.07E0,3.869E1,2E0,1.822E-1,1.111E-1,9.8E0,6.708843E-2,-8.824017E-4,5.4208327E-2,7.225008E-3,-5.4317165E-2,3.1875387E-2,5.9844643E-2,-3.6974605E-2,-3.6059074E-2,3.627501E-2,6.2003773E-2,2.3122469E-2,1.3720396E-2,-5.3967834E-2,-5.972093E-2,-7.1938992E-3],"split_indices":[17,0,0,15,3,0,0,6,1,2,15,1,5,0,0,1,15,23,0,14,0,12,2,8,1,14,21,0,0,0,0,0,0,0,0,0,0,0,0,0,0,0,0],"split_type":[0,0,0,0,0,0,0,0,0,0,0,0,0,0,0,0,0,0,0,0,0,0,0,0,0,0,0,0,0,0,0,0,0,0,0,0,0,0,0,0,0,0,0],"sum_hessian":[5.316023E2,3.8144388E2,1.501584E2,2.9766995E2,8.377392E1,1.574341E0,1.4858406E2,2.8547903E2,1.2190925E1,7.31864E1,1.0587518E1,2.300231E2,5.5455925E1,1.03723135E1,1.818611E0,9.84422E0,6.3342182E1,8.794019E0,1.7934984E0,2.2758662E2,2.436482E0,2.1920624E1,3.35353E1,4.1097965E0,5.734424E0,2.2417118E1,4.0925064E1,7.3684134E0,1.4256052E0,2.1355867E2,1.4027953E1,2.0027744E1,1.892879E0,2.726509E1,6.2702084E0,2.9550724E0,1.154724E0,2.4860134E0,3.248411E0,1.2935353E1,9.481765E0,3.8862473E1,2.062592E0],"tree_param":{"num_deleted":"0","num_feature":"24","num_nodes":"43","size_leaf_vector":"1"}},{"base_weights":[-7.930849E-3,4.7677335E-1,-1.2523856E0,7.452788E-1,-4.452421E-1,-7.463903E-3,-6.3160725E-2,8.308481E-1,-1.0052141E0,1.1706865E-1,-8.9228845E-1,3.8531882E-1,1.1443197E0,3.0256573E-2,-5.972996E-2,-3.0902436E-1,1.0945147E0,-9.759785E-1,2.6122538E-2,1.1422472E0,-5.047235E-2,1.1846596E0,-6.01404E-1,-6.3445765E-1,6.385421E-2,1.2326648E0,-1.6095098E-3,-1.1647452E0,-2.9519054E-1,6.6926986E-2,1.3393772E-2,-4.4241674E-2,3.161369E-2,6.102699E-2,2.4136402E-2,-4.858243E-2,1.2543461E-2,1.5780369E-2,-4.680704E-2,2.035656E-2,6.649155E-2,-6.0194124E-2,-5.8245105E-3,5.8886964E-2,-3.0621314E-2],"categories":[],"categories_nodes":[],"categories_segments":[],"categories_sizes":[],"default_left":[0,0,0,0,0,0,0,0,0,0,0,0,0,0,0,0,0,0,0,0,0,0,0,0,0,0,0,0,0,0,0,0,0,0,0,0,0,0,0,0,0,0,0,0,0],"id":16,"left_children":[1,3,5,7,9,-1,-1,11,13,15,17,19,21,-1,-1,23,25,27,-1,29,31,33,35,37,-1,39,-1,41,43,-1,-1,-1,-1,-1,-1,-1,-1,-1,-1,-1,-1,-1,-1,-1,-1],"loss_changes":[3.179838E2,9.4260475E1,1.5765991E0,4.490477E1,2.1772385E1,0E0,0E0,3.881041E1,5.0426264E0,1.660627E1,6.209156E0,3.8843555E1,1.2294525E1,0E0,0E0,1.5253881E1,1.9197273E0,5.541416E0,0E0,7.0223236E0,4.3612995E1,3.4678802E0,1.6251988E0,7.141738E0,0E0,3.23658E-1,0E0,1.3167877E0,5.99253E0,0E0,0E0,0E0,0E0,0E0,0E0,0E0,0E0,0E0,0E0,0E0,0E0,0E0,0E0,0E0,0E0],"parents":[2147483647,0,0,1,1,2,2,3,3,4,4,7,7,8,8,9,9,10,10,11,11,12,12,15,15,16,16,17,17,19,19,20,20,21,21,22,22,23,23,25,25,27,27,28,28],"right_children":[2,4,6,8,10,-1,-1,12,14,16,18,20,22,-1,-1,24,26,28,-1,30,32,34,36,38,-1,40,-1,42,44,-1,-1,-1,-1,-1,-1,-1,-1,-1,-1,-1,-1,-1,-1,-1,-1],"split_conditions":[7.14E-2,5.4E1,1.7E1,1.362E1,6.21E0,-7.463903E-3,-6.3160725E-2,4.17E-2,2E1,1.176E-1,3.103E-1,4.56E0,1E0,3.0256573E-2,-5.972996E-2,5.43E-2,5.185E-1,4.38E-2,2.6122538E-2,7.223E1,4E0,4.55E-2,5.3E-2,4.376E1,6.385421E-2,1.429E-1,-1.6095098E-3,1.22E2,4.58E-2,6.6926986E-2,1.3393772E-2,-4.4241674E-2,3.161369E-2,6.102699E-2,2.4136402E-2,-4.858243E-2,1.2543461E-2,1.5780369E-2,-4.680704E-2,2.035656E-2,6.649155E-2,-6.0194124E-2,-5.8245105E-3,5.8886964E-2,-3.0621314E-2],"split_indices":[17,0,0,15,15,0,0,4,0,4,4,15,9,0,0,3,14,3,0,23,13,14,16,23,0,1,0,13,3,0,0,0,0,0,0,0,0,0,0,0,0,0,0,0,0],"split_type":[0,0,0,0,0,0,0,0,0,0,0,0,0,0,0,0,0,0,0,0,0,0,0,0,0,0,0,0,0,0,0,0,0,0,0,0,0,0,0,0,0,0,0,0,0],"sum_hessian":[5.251781E2,3.7840826E2,1.4676982E2,2.93212E2,8.519626E1,1.570514E0,1.4519931E2,2.800478E2,1.3164216E1,3.8060516E1,4.7135742E1,1.1658197E2,1.6346584E2,1.1542614E0,1.2009954E1,2.6982166E1,1.107835E1,4.4795937E1,2.3398058E0,4.2003952E1,7.457802E1,1.6008794E2,3.377893E0,2.2886393E1,4.0957737E0,9.784577E0,1.2937725E0,3.4514885E1,1.0281053E1,3.3869534E1,8.134416E0,3.3429256E1,4.114876E1,1.5159987E2,8.488075E0,2.257237E0,1.120656E0,5.504713E0,1.738168E1,1.5769246E0,8.207653E0,3.312951E1,1.3853748E0,1.3412242E0,8.939828E0],"tree_param":{"num_deleted":"0","num_feature":"24","num_nodes":"45","size_leaf_vector":"1"}},{"base_weights":[-2.234994E-2,5.187083E-1,-1.0395608E0,8.1812763E-1,-3.9044496E-1,5.385564E-1,-1.1303439E0,9.085806E-1,-1.0494235E0,1.0404927E0,-8.4291E-1,1.0360826E0,-3.338365E-1,-1.1436332E0,1.4204137E-2,1.211441E0,6.064793E-1,-6.0558867E-2,1.674681E-2,1.232015E0,-2.4707714E-1,3.5574934E-1,-1.0440955E0,1.5464037E-2,5.828609E-2,-5.018277E-2,3.5974674E-2,-4.0462562E-1,-1.1704347E0,1.2766609E0,6.215727E-1,1.0048773E0,2.0791693E-1,6.578571E-2,1.4709371E-2,2.2529801E-2,-4.5106467E-2,7.748735E-1,-2.2258502E-1,-1.0969416E0,3.885966E-2,3.9327484E-1,-8.892173E-1,-3.4069574E-1,-1.1840377E0,6.4677395E-2,5.707283E-3,6.135898E-3,5.0208338E-2,-5.3772863E-2,6.1179798E-2,-9.053122E-2,3.0301442E-2,5.0508887E-2,-4.071693E-3,-3.3754136E-2,1.9005442E-2,-2.3850543E-2,-5.8841534E-2,3.5521228E-2,-6.561721E-3,-5.1127113E-2,-1.0948005E-2,-4.9516477E-2,1.7024113E-2,-5.973242E-2,-1.0081823E-2],"categories":[],"categories_nodes":[],"categories_segments":[],"categories_sizes":[],"default_left":[0,0,0,0,0,0,0,0,0,0,0,0,0,0,0,0,0,0,0,0,0,0,0,0,0,0,0,0,0,0,0,0,0,0,0,0,0,0,0,0,0,0,0,0,0,0,0,0,0,0,0,0,0,0,0,0,0,0,0,0,0,0,0,0,0,0,0],"id":17,"left_children":[1,3,5,7,9,11,13,15,17,19,21,23,25,27,-1,29,31,-1,-1,33,35,37,39,-1,-1,-1,-1,41,43,45,47,49,51,-1,-1,-1,-1,53,55,57,-1,59,61,63,65,-1,-1,-1,-1,-1,-1,-1,-1,-1,-1,-1,-1,-1,-1,-1,-1,-1,-1,-1,-1,-1,-1],"loss_changes":[2.8029166E2,9.0825294E1,2.5941574E1,4.3257355E1,5.464545E1,4.8147154E0,3.4738312E0,2.1168701E1,3.1001616E0,5.3346386E0,1.5720345E1,2.802081E-1,3.8939373E0,2.8176117E0,0E0,3.767044E0,1.9139313E1,0E0,0E0,1.0199032E0,1.9942851E0,2.5705643E0,6.122551E0,0E0,0E0,0E0,0E0,3.1892323E0,1.4004822E0,1.9292603E0,2.501287E0,2.8924454E1,5.1060406E1,0E0,0E0,0E0,0E0,1.2830381E0,1.6021816E0,2.0944824E0,0E0,6.701634E-1,2.1179605E-1,2.0992484E0,1.3940277E0,0E0,0E0,0E0,0E0,0E0,0E0,0E0,0E0,0E0,0E0,0E0,0E0,0E0,0E0,0E0,0E0,0E0,0E0,0E0,0E0,0E0,0E0],"parents":[2147483647,0,0,1,1,2,2,3,3,4,4,5,5,6,6,7,7,8,8,9,9,10,10,11,11,12,12,13,13,15,15,16,16,19,19,20,20,21,21,22,22,27,27,28,28,29,29,30,30,31,31,32,32,37,37,38,38,39,39,41,41,42,42,43,43,44,44],"right_children":[2,4,6,8,10,12,14,16,18,20,22,24,26,28,-1,30,32,-1,-1,34,36,38,40,-1,-1,-1,-1,42,44,46,48,50,52,-1,-1,-1,-1,54,56,58,-1,60,62,64,66,-1,-1,-1,-1,-1,-1,-1,-1,-1,-1,-1,-1,-1,-1,-1,-1,-1,-1,-1,-1,-1,-1],"split_conditions":[4.55E-2,1E0,2.2E1,1.362E1,1E0,1E0,3E1,1E0,1.795E-1,3.603E1,5E0,1E0,1E0,1E0,1.4204137E-2,5.8E1,1E0,-6.0558867E-2,1.674681E-2,2.8E-3,3.3E1,2.051E-1,7E0,1.5464037E-2,5.828609E-2,-5.018277E-2,3.5974674E-2,3.6E1,2.6E1,1.2E1,1.42E-2,1.154E-1,1E0,6.578571E-2,1.4709371E-2,2.2529801E-2,-4.5106467E-2,7E0,6.2E1,2E0,3.885966E-2,6.02E0,7E0,5.14E0,9E0,6.4677395E-2,5.707283E-3,6.135898E-3,5.0208338E-2,-5.3772863E-2,6.1179798E-2,-9.053122E-2,3.0301442E-2,5.0508887E-2,-4.071693E-3,-3.3754136E-2,1.9005442E-2,-2.3850543E-2,-5.8841534E-2,3.5521228E-2,-6.561721E-3,-5.1127113E-2,-1.0948005E-2,-4.9516477E-2,1.7024113E-2,-5.973242E-2,-1.0081823E-2],"split_indices":[14,6,0,15,10,10,22,10,1,2,15,7,18,8,0,0,22,0,0,3,0,1,18,0,0,0,0,0,0,18,3,1,5,0,0,0,0,5,0,10,0,15,5,15,6,0,0,0,0,0,0,0,0,0,0,0,0,0,0,0,0,0,0,0,0,0,0],"split_type":[0,0,0,0,0,0,0,0,0,0,0,0,0,0,0,0,0,0,0,0,0,0,0,0,0,0,0,0,0,0,0,0,0,0,0,0,0,0,0,0,0,0,0,0,0,0,0,0,0,0,0,0,0,0,0,0,0,0,0,0,0,0,0,0,0,0,0],"sum_hessian":[5.0729855E2,3.3147556E2,1.75823E2,2.4942903E2,8.2046524E1,9.295939E0,1.6652707E2,2.3839606E2,1.1032987E1,1.9398485E1,6.2648037E1,5.800358E0,3.4955812E0,1.6516669E2,1.3603715E0,1.17545334E2,1.2085072E2,9.99073E0,1.0422561E0,1.6924204E1,2.4742806E0,8.893353E0,5.3754684E1,1.3904908E0,4.409867E0,2.165614E0,1.3299675E0,6.343804E0,1.5882289E2,1.0479425E2,1.2751084E1,5.9677036E1,6.1173683E1,1.5167588E1,1.7566155E0,1.349305E0,1.1249757E0,4.959397E0,3.9339566E0,5.262543E1,1.1292528E0,2.4682193E0,3.8755848E0,2.9819076E0,1.5584099E2,1.0318267E2,1.6115749E0,6.1079E0,6.643184E0,5.3046794E0,5.4372356E1,9.493072E0,5.168061E1,3.7494082E0,1.2099887E0,2.178356E0,1.7556007E0,6.803322E0,4.582211E1,1.3172657E0,1.1509534E0,2.7941809E0,1.0814039E0,1.293991E0,1.6879166E0,1.5396204E2,1.878949E0],"tree_param":{"num_deleted":"0","num_feature":"24","num_nodes":"67","size_leaf_vector":"1"}},{"base_weights":[3.7488842E-3,4.5148617E-1,-1.2199638E0,7.213594E-1,-4.9571863E-1,-1.6334929E-2,-6.125158E-2,1.0097394E0,1.8477054E-1,-6.7811054E-1,7.424732E-1,1.1277658E0,-8.9057124E-1,-5.036736E-1,1.1176063E0,-8.897278E-1,3.2990175E-1,6.14676E-2,-2.6442555E-1,1.2285495E0,7.9261184E-1,4.3798E-2,-5.89402E-2,-9.435363E-1,8.455371E-2,-1.09044254E-1,1.1895039E0,-9.590649E-1,1.6712436E-1,9.3018854E-1,-2.7794412E-1,-5.0989836E-2,3.125606E-2,6.2274165E-2,-1.7926278E-2,1.5323088E-2,5.88152E-2,8.0980774E-4,-6.4275436E-2,5.4185122E-2,-1.6109388E-2,1.8269135E-2,-2.4510982E-2,6.2579624E-2,1.5124348E-2,-3.3980392E-2,-6.2181085E-2,5.2952122E-2,-2.299033E-2,6.2394794E-2,-1.3895065E-2,-4.006119E-2,1.8220287E-2],"categories":[],"categories_nodes":[],"categories_segments":[],"categories_sizes":[],"default_left":[0,0,0,0,0,0,0,0,0,0,0,0,0,0,0,0,0,0,0,0,0,0,0,0,0,0,0,0,0,0,0,0,0,0,0,0,0,0,0,0,0,0,0,0,0,0,0,0,0,0,0,0,0],"id":18,"left_children":[1,3,5,7,9,-1,-1,11,13,15,17,19,21,23,25,27,29,-1,31,33,35,-1,-1,37,39,41,43,45,47,49,51,-1,-1,-1,-1,-1,-1,-1,-1,-1,-1,-1,-1,-1,-1,-1,-1,-1,-1,-1,-1,-1,-1],"loss_changes":[2.7364877E2,9.382782E1,2.054596E-1,4.3911865E1,1.8948011E1,0E0,0E0,4.252832E1,6.5325066E1,1.558992E1,5.699754E0,4.929062E0,6.82955E0,1.527077E1,3.933632E0,4.5231094E0,5.064637E0,0E0,3.591589E0,4.0084076E0,7.701227E0,0E0,0E0,1.1072823E1,1.0930544E1,7.7663636E-1,1.8699417E0,3.6096077E0,3.0128293E0,2.9786744E0,2.7506034E0,0E0,0E0,0E0,0E0,0E0,0E0,0E0,0E0,0E0,0E0,0E0,0E0,0E0,0E0,0E0,0E0,0E0,0E0,0E0,0E0,0E0,0E0],"parents":[2147483647,0,0,1,1,2,2,3,3,4,4,7,7,8,8,9,9,10,10,11,11,12,12,13,13,14,14,15,15,16,16,18,18,19,19,20,20,23,23,24,24,25,25,26,26,27,27,28,28,29,29,30,30],"right_children":[2,4,6,8,10,-1,-1,12,14,16,18,20,22,24,26,28,30,-1,32,34,36,-1,-1,38,40,42,44,46,48,50,52,-1,-1,-1,-1,-1,-1,-1,-1,-1,-1,-1,-1,-1,-1,-1,-1,-1,-1,-1,-1,-1,-1],"split_conditions":[7.14E-2,5.3E1,1.7E1,2E0,6.68E-2,-1.6334929E-2,-6.125158E-2,1.426E1,1.444E-1,1.654E-1,6.36E0,1E0,1.9E1,5E0,1.282E-1,2.2E1,6.41E0,6.14676E-2,5E0,7E-1,8.37E-2,4.3798E-2,-5.89402E-2,1E0,1.36E0,2.09E-2,6.68E-2,7.02E0,2E0,3.4E1,2E0,-5.0989836E-2,3.125606E-2,6.2274165E-2,-1.7926278E-2,1.5323088E-2,5.88152E-2,8.0980774E-4,-6.4275436E-2,5.4185122E-2,-1.6109388E-2,1.8269135E-2,-2.4510982E-2,6.2579624E-2,1.5124348E-2,-3.3980392E-2,-6.2181085E-2,5.2952122E-2,-2.299033E-2,6.2394794E-2,-1.3895065E-2,-4.006119E-2,1.8220287E-2],"split_indices":[17,0,0,10,3,0,0,15,4,4,15,10,0,13,1,22,15,0,10,4,4,0,0,21,21,3,3,15,7,13,7,0,0,0,0,0,0,0,0,0,0,0,0,0,0,0,0,0,0,0,0,0,0],"split_type":[0,0,0,0,0,0,0,0,0,0,0,0,0,0,0,0,0,0,0,0,0,0,0,0,0,0,0,0,0,0,0,0,0,0,0,0,0,0,0,0,0,0,0,0,0,0,0,0,0,0,0,0,0],"sum_hessian":[4.9744336E2,3.646534E2,1.3278993E2,2.8398123E2,8.067218E1,1.1184405E0,1.316715E2,1.8413786E2,9.9843376E1,7.070876E1,9.96342E0,1.7375279E2,1.03850765E1,5.7711586E1,4.213179E1,5.8537106E1,1.2171653E1,6.567043E0,3.3963766E0,1.3153381E2,4.2218975E1,1.1707386E0,9.214337E0,3.26744E1,2.5037188E1,2.3041315E0,3.982766E1,5.5019928E1,3.5171776E0,5.857094E0,6.3145585E0,1.757526E0,1.6388507E0,1.3035815E2,1.1756656E0,1.9416443E1,2.280253E1,8.834198E0,2.3840202E1,6.7620506E0,1.8275137E1,1.0449609E0,1.2591707E0,3.683809E1,2.989572E0,2.9468174E1,2.5551756E1,1.1672761E0,2.3499017E0,4.6114187E0,1.2456751E0,3.3434994E0,2.9710593E0],"tree_param":{"num_deleted":"0","num_feature":"24","num_nodes":"53","size_leaf_vector":"1"}},{"base_weights":[7.7830226E-4,4.444556E-1,-1.1987932E0,7.754249E-1,-2.2928995E-1,-8.0074946E-4,-6.0548693E-2,9.3154585E-1,-3.9403025E-2,1.6279921E-1,-8.5688823E-1,1.1234403E0,5.6133384E-1,8.7499475E-1,-1.0551138E0,4.5606995E-1,-3.0032903E-1,-1.1202302E0,5.296902E-2,1.1877649E0,3.4247878E-1,-8.163797E-1,8.0815834E-1,-2.9146051E-2,1.0512362E0,-6.0203552E-2,-4.565716E-1,6.5499175E-1,-5.944232E-1,-5.4453325E-1,5.3093176E-2,-2.0333312E-3,-1.1679944E0,7.319292E-1,-5.9230256E-1,6.029091E-2,-7.1660015E-3,4.7791105E-2,-2.753809E-2,-5.354766E-2,1.680325E-2,6.017387E-2,8.139635E-3,5.785038E-2,-1.4557825E-2,2.5427986E-2,-5.5833545E-2,3.567582E-2,-3.6744785E-2,-4.8242483E-2,1.160218E-2,-2.6982077E-4,-4.6857428E-2,-6.043313E-2,-2.3125637E-2,-8.3869166E-4,5.647077E-2,-4.4173032E-2,3.998453E-3],"categories":[],"categories_nodes":[],"categories_segments":[],"categories_sizes":[],"default_left":[0,0,0,0,0,0,0,0,0,0,0,0,0,0,0,0,0,0,0,0,0,0,0,0,0,0,0,0,0,0,0,0,0,0,0,0,0,0,0,0,0,0,0,0,0,0,0,0,0,0,0,0,0,0,0,0,0,0,0],"id":19,"left_children":[1,3,5,7,9,-1,-1,11,13,15,17,19,21,23,25,27,29,31,33,35,37,39,41,-1,43,-1,45,47,49,51,-1,-1,53,55,57,-1,-1,-1,-1,-1,-1,-1,-1,-1,-1,-1,-1,-1,-1,-1,-1,-1,-1,-1,-1,-1,-1,-1,-1],"loss_changes":[2.5729327E2,7.88715E1,1.8611145E0,3.0170593E1,2.8936121E1,0E0,0E0,1.349472E1,3.718942E1,1.0033828E1,1.0879269E1,6.1215057E0,2.442161E1,6.033144E0,1.1399994E0,9.7952585E0,1.0176823E1,1.7606812E0,5.2927074E0,3.048355E0,6.7142673E0,3.6206174E0,1.5051029E1,0E0,3.0597515E0,0E0,4.0001917E0,3.6415024E0,2.5783398E0,5.3141284E0,0E0,0E0,4.033966E-1,1.7604277E0,1.2919276E0,0E0,0E0,0E0,0E0,0E0,0E0,0E0,0E0,0E0,0E0,0E0,0E0,0E0,0E0,0E0,0E0,0E0,0E0,0E0,0E0,0E0,0E0,0E0,0E0],"parents":[2147483647,0,0,1,1,2,2,3,3,4,4,7,7,8,8,9,9,10,10,11,11,12,12,13,13,14,14,15,15,16,16,17,17,18,18,19,19,20,20,21,21,22,22,24,24,26,26,27,27,28,28,29,29,32,32,33,33,34,34],"right_children":[2,4,6,8,10,-1,-1,12,14,16,18,20,22,24,26,28,30,32,34,36,38,40,42,-1,44,-1,46,48,50,52,-1,-1,54,56,58,-1,-1,-1,-1,-1,-1,-1,-1,-1,-1,-1,-1,-1,-1,-1,-1,-1,-1,-1,-1,-1,-1,-1,-1],"split_conditions":[7.14E-2,3.8E1,1.7E1,1E0,4.55E-2,-8.0074946E-4,-6.0548693E-2,1E2,2E0,3E0,3.7E-2,3E0,1.071E-1,1.12E0,4.31E0,9.734E1,8.33E-2,4.376E1,3.06E0,3.396E-1,1.04E0,2E0,1E0,-2.9146051E-2,4.027E1,-6.0203552E-2,1.61E0,4E0,1.256E-1,1E0,5.3093176E-2,-2.0333312E-3,1.3E1,1E0,6.091E1,6.029091E-2,-7.1660015E-3,4.7791105E-2,-2.753809E-2,-5.354766E-2,1.680325E-2,6.017387E-2,8.139635E-3,5.785038E-2,-1.4557825E-2,2.5427986E-2,-5.5833545E-2,3.567582E-2,-3.6744785E-2,-4.8242483E-2,1.160218E-2,-2.6982077E-4,-4.6857428E-2,-6.043313E-2,-2.3125637E-2,-8.3869166E-4,5.647077E-2,-4.4173032E-2,3.998453E-3],"split_indices":[17,0,0,6,14,0,0,23,10,10,3,10,1,21,12,23,3,23,21,1,21,12,21,0,2,0,21,6,1,6,0,0,18,18,23,0,0,0,0,0,0,0,0,0,0,0,0,0,0,0,0,0,0,0,0,0,0,0,0],"split_type":[0,0,0,0,0,0,0,0,0,0,0,0,0,0,0,0,0,0,0,0,0,0,0,0,0,0,0,0,0,0,0,0,0,0,0,0,0,0,0,0,0,0,0,0,0,0,0,0,0,0,0,0,0,0,0,0,0,0,0],"sum_hessian":[4.814306E2,3.5190384E2,1.2952678E2,2.3587982E2,1.1602401E2,1.34391E0,1.2818286E2,1.97832E2,3.8047825E1,7.18664E1,4.4157608E1,1.289552E2,6.8876785E1,2.0095398E1,1.7952425E1,4.4011715E1,2.7854683E1,3.406646E1,1.0091146E1,1.1866071E2,1.0294495E1,1.0114213E1,5.8762573E1,1.9183961E0,1.8177002E1,1.35649E1,4.3875256E0,3.7321075E1,6.690642E0,2.412922E1,3.725463E0,1.5218167E0,3.2544643E1,4.8517733E0,5.2393727E0,1.1716571E2,1.4950013E0,6.061978E0,4.2325163E0,8.3421545E0,1.7720588E0,3.5904472E1,2.28581E1,1.6977398E1,1.1996039E0,1.8752673E0,2.512258E0,3.628005E1,1.0410252E0,4.504337E0,2.186305E0,1.0594569E1,1.3534651E1,3.0096455E1,2.4481895E0,2.0146983E0,2.837075E0,3.4367766E0,1.8025963E0],"tree_param":{"num_deleted":"0","num_feature":"24","num_nodes":"59","size_leaf_vector":"1"}},{"base_weights":[-3.7470472E-5,4.2710525E-1,-5.956003E-2,8.476984E-1,-1.0676294E-1,9.4993484E-1,-7.5966644E-1,7.707319E-1,-4.7937858E-1,1.0437672E0,5.1962204E-2,-1.1079015E0,4.7001746E-2,9.280194E-1,-7.728725E-1,-6.6870466E-2,-2.6789954E-1,1.1709049E0,6.20225E-1,-5.5049664E-1,7.1027714E-1,-1.643463E-2,-5.835039E-2,1.0212854E0,-1.8358397E-1,-6.0278375E-2,1.4638088E-2,6.08166E-1,-5.303052E-1,5.961162E-2,-4.3479097E-3,6.1913062E-2,1.2361846E-2,2.7263958E-2,-4.872364E-2,4.193407E-2,-5.2728974E-3,5.4234114E-2,-2.3338357E-2,1.8836379E-2,-4.4362623E-2,-2.0002216E-2,4.456569E-2,-3.968654E-2,1.9592222E-2],"categories":[],"categories_nodes":[],"categories_segments":[],"categories_sizes":[],"default_left":[0,0,0,0,0,0,0,0,0,0,0,0,0,0,0,0,0,0,0,0,0,0,0,0,0,0,0,0,0,0,0,0,0,0,0,0,0,0,0,0,0,0,0,0,0],"id":20,"left_children":[1,3,-1,5,7,9,11,13,15,17,19,21,-1,23,25,-1,27,29,31,33,35,-1,-1,37,39,-1,-1,41,43,-1,-1,-1,-1,-1,-1,-1,-1,-1,-1,-1,-1,-1,-1,-1,-1],"loss_changes":[2.3226933E2,7.55397E1,0E0,3.1625473E1,4.907353E1,1.488121E1,8.026886E0,1.15899315E1,1.8726135E1,7.9128723E0,7.4594316E0,8.867359E-2,0E0,4.4480667E0,2.5139983E0,0E0,2.0007082E1,3.3837585E0,8.7225E0,5.1164503E0,1.0262122E0,0E0,0E0,4.097431E0,1.9226776E0,0E0,0E0,6.12373E0,1.6447044E1,0E0,0E0,0E0,0E0,0E0,0E0,0E0,0E0,0E0,0E0,0E0,0E0,0E0,0E0,0E0,0E0],"parents":[2147483647,0,0,1,1,3,3,4,4,5,5,6,6,7,7,8,8,9,9,10,10,11,11,13,13,14,14,16,16,17,17,18,18,19,19,20,20,23,23,24,24,27,27,28,28],"right_children":[2,4,-1,6,8,10,12,14,16,18,20,22,-1,24,26,-1,28,30,32,34,36,-1,-1,38,40,-1,-1,42,44,-1,-1,-1,-1,-1,-1,-1,-1,-1,-1,-1,-1,-1,-1,-1,-1],"split_conditions":[7.14E-2,2E0,-5.956003E-2,1.282E1,1E0,4.55E-2,1E0,7E0,1E0,1E0,8.629E1,3.117E1,4.7001746E-2,9.1E0,2.8E-3,-6.6870466E-2,3.262E1,6E0,1E0,1.8E1,5E0,-1.643463E-2,-5.835039E-2,2E0,3.03E-2,-6.0278375E-2,1.4638088E-2,5E0,5.08E-2,5.961162E-2,-4.3479097E-3,6.1913062E-2,1.2361846E-2,2.7263958E-2,-4.872364E-2,4.193407E-2,-5.2728974E-3,5.4234114E-2,-2.3338357E-2,1.8836379E-2,-4.4362623E-2,-2.0002216E-2,4.456569E-2,-3.968654E-2,1.9592222E-2],"split_indices":[17,10,0,15,22,14,5,10,5,10,23,2,0,15,16,0,2,7,22,13,22,0,0,8,3,0,0,13,3,0,0,0,0,0,0,0,0,0,0,0,0,0,0,0,0],"split_type":[0,0,0,0,0,0,0,0,0,0,0,0,0,0,0,0,0,0,0,0,0,0,0,0,0,0,0,0,0,0,0,0,0,0,0,0,0,0,0,0,0,0,0,0,0],"sum_hessian":[4.5450726E2,3.3501477E2,1.194925E2,1.8705827E2,1.479565E2,1.762565E2,1.0801778E1,4.3782356E1,1.0417413E2,1.5943428E2,1.6822216E1,9.253997E0,1.5477815E0,4.009557E1,3.6867898E0,1.9546074E1,8.462806E1,1.2126788E2,3.8166397E1,8.869263E0,7.9529524E0,1.1150559E0,8.138941E0,3.706683E1,3.028739E0,2.5287073E0,1.1580825E0,1.9202173E1,6.542589E1,1.1929733E2,1.97055E0,1.3491434E1,2.4674965E1,2.3945048E0,6.4747577E0,6.847036E0,1.1059167E0,3.5812164E1,1.2546654E0,1.9447846E0,1.0839542E0,4.119815E0,1.5082359E1,5.0997086E1,1.4428802E1],"tree_param":{"num_deleted":"0","num_feature":"24","num_nodes":"45","size_leaf_vector":"1"}},{"base_weights":[-1.4967267E-2,4.0257245E-1,-5.927325E-2,8.053749E-1,-1.0613023E-1,8.955061E-1,-8.756217E-1,-5.7007337E-1,8.8756996E-1,1.0276395E0,1.3671861E-2,-5.579828E-2,2.1705741E-2,-2.620539E-1,-8.271493E-1,1.0875355E0,-2.932124E-1,1.1631125E0,6.1498445E-1,5.39846E-1,-7.7843976E-1,-5.458045E-1,3.8097745E-1,-9.538925E-1,2.979446E-1,-1.3036554E-1,1.1563914E0,3.1868553E-1,-8.6735344E-1,5.8905125E-2,4.6925634E-4,6.059567E-2,1.4541142E-2,-2.867029E-2,4.784397E-2,-5.1366735E-2,3.577404E-2,1.6460071E-3,-4.556666E-2,-5.3992243E-3,5.4590847E-2,-5.141923E-2,1.5210784E-2,-2.75131E-2,5.067662E-2,2.2486612E-2,-3.1340305E-2,6.0020007E-2,-8.052039E-3,5.0581057E-2,-1.9908244E-2,-5.2799653E-2,-9.332635E-3],"categories":[],"categories_nodes":[],"categories_segments":[],"categories_sizes":[],"default_left":[0,0,0,0,0,0,0,0,0,0,0,0,0,0,0,0,0,0,0,0,0,0,0,0,0,0,0,0,0,0,0,0,0,0,0,0,0,0,0,0,0,0,0,0,0,0,0,0,0,0,0,0,0],"id":21,"left_children":[1,3,-1,5,7,9,11,13,15,17,19,-1,-1,21,23,25,27,29,31,33,35,37,39,41,43,45,47,49,51,-1,-1,-1,-1,-1,-1,-1,-1,-1,-1,-1,-1,-1,-1,-1,-1,-1,-1,-1,-1,-1,-1,-1,-1],"loss_changes":[2.218289E2,6.864226E1,0E0,2.9092285E1,6.907613E1,2.0706238E1,3.6366544E0,7.860405E0,1.1588947E1,7.9296265E0,1.0500941E1,0E0,0E0,8.941979E0,8.146542E0,3.5915833E0,2.9816337E0,1.9829407E0,7.4537926E0,7.5699058E0,4.476842E0,7.1427374E0,5.4165125E0,4.9793243E0,4.4084973E0,1.1730026E0,2.4508018E0,2.6176484E0,3.4752107E-1,0E0,0E0,0E0,0E0,0E0,0E0,0E0,0E0,0E0,0E0,0E0,0E0,0E0,0E0,0E0,0E0,0E0,0E0,0E0,0E0,0E0,0E0,0E0,0E0],"parents":[2147483647,0,0,1,1,3,3,4,4,5,5,6,6,7,7,8,8,9,9,10,10,13,13,14,14,15,15,16,16,17,17,18,18,19,19,20,20,21,21,22,22,23,23,24,24,25,25,26,26,27,27,28,28],"right_children":[2,4,-1,6,8,10,12,14,16,18,20,-1,-1,22,24,26,28,30,32,34,36,38,40,42,44,46,48,50,52,-1,-1,-1,-1,-1,-1,-1,-1,-1,-1,-1,-1,-1,-1,-1,-1,-1,-1,-1,-1,-1,-1,-1,-1],"split_conditions":[7.14E-2,2E0,-5.927325E-2,1.362E1,1.455E-1,5.4E1,9.59E-2,1E0,6.4E1,1E0,2.24E-2,-5.579828E-2,2.1705741E-2,4.55E-2,6.68E-2,1.282E-1,6.929E1,1.2E1,1E0,3.39E-2,3.182E-1,2.2E1,1E0,1E1,5E0,9.59E-2,3.056E-1,1E0,2.727E-1,5.8905125E-2,4.6925634E-4,6.059567E-2,1.4541142E-2,-2.867029E-2,4.784397E-2,-5.1366735E-2,3.577404E-2,1.6460071E-3,-4.556666E-2,-5.3992243E-3,5.4590847E-2,-5.141923E-2,1.5210784E-2,-2.75131E-2,5.067662E-2,2.2486612E-2,-3.1340305E-2,6.0020007E-2,-8.052039E-3,5.0581057E-2,-1.9908244E-2,-5.2799653E-2,-9.332635E-3],"split_indices":[17,10,0,15,4,0,1,6,0,10,16,0,0,4,3,1,23,18,21,4,4,0,18,18,10,1,1,6,4,0,0,0,0,0,0,0,0,0,0,0,0,0,0,0,0,0,0,0,0,0,0,0,0],"split_type":[0,0,0,0,0,0,0,0,0,0,0,0,0,0,0,0,0,0,0,0,0,0,0,0,0,0,0,0,0,0,0,0,0,0,0,0,0,0,0,0,0,0,0,0,0,0,0,0,0,0,0,0,0],"sum_hessian":[4.519126E2,3.3357562E2,1.1833696E2,1.8584003E2,1.4773561E2,1.768263E2,9.013742E0,1.0100449E2,4.6731113E1,1.5363968E2,2.3186605E1,7.741146E0,1.2725967E0,4.686811E1,5.4136387E1,4.0030857E1,6.700256E0,1.1429763E2,3.9342052E1,1.4123376E1,9.06323E0,3.2623524E1,1.4244587E1,4.8792065E1,5.344321E0,2.0942953E0,3.793656E1,3.4588637E0,3.241392E0,1.1281078E2,1.4868425E0,1.2881938E1,2.6460115E1,3.7467172E0,1.0376658E1,8.036612E0,1.0266184E0,1.2981094E1,1.9642427E1,8.941872E0,5.302716E0,4.6236984E1,2.5550795E0,2.5512667E0,2.793054E0,1.0091617E0,1.0851336E0,3.679622E1,1.1403438E0,1.54968E0,1.9091837E0,2.106339E0,1.135053E0],"tree_param":{"num_deleted":"0","num_feature":"24","num_nodes":"53","size_leaf_vector":"1"}},{"base_weights":[-3.3249878E-3,4.1170645E-1,-1.164538E0,7.167772E-1,-1.8214776E-1,-1.4342359E-2,-5.856785E-2,4.3236503E-1,1.1548061E0,-4.8305187E-1,5.736352E-1,1.0492065E0,1.3944806E-1,1.1980282E0,4.5408383E-1,2.0589976E-1,-7.5547516E-1,7.952297E-1,-7.842144E-1,1.1093993E0,-1.0006569E-1,-3.3884203E-1,7.9253715E-1,6.0513448E-2,1.7463775E-2,9.392829E-1,-3.0707244E-2,5.6413597E-1,-5.2268784E-2,-1.0293461E0,-4.152652E-2,1.110908E0,-1.1033306E-1,-4.6746235E-2,-9.132943E-3,-6.6422685E-3,5.83313E-2,9.012316E-3,-1.6643792E-2,-4.7884613E-2,2.2915523E-2,-4.6927184E-2,5.5220228E-2,5.785964E-2,6.3488767E-3,3.7316706E-2,-5.438851E-3,-5.337007E-2,1.2403052E-2,-2.6407978E-2,2.951174E-2,6.0979284E-2,1.3876944E-2,-5.064262E-2,1.8843409E-2],"categories":[],"categories_nodes":[],"categories_segments":[],"categories_sizes":[],"default_left":[0,0,0,0,0,0,0,0,0,0,0,0,0,0,0,0,0,0,0,0,0,0,0,0,0,0,0,0,0,0,0,0,0,0,0,0,0,0,0,0,0,0,0,0,0,0,0,0,0,0,0,0,0,0,0],"id":22,"left_children":[1,3,5,7,9,-1,-1,11,13,15,17,19,21,23,25,27,29,31,33,35,37,39,41,-1,-1,43,-1,45,-1,47,49,51,53,-1,-1,-1,-1,-1,-1,-1,-1,-1,-1,-1,-1,-1,-1,-1,-1,-1,-1,-1,-1,-1,-1],"loss_changes":[2.1363657E2,5.9294792E1,3.6254883E-1,2.6403297E1,2.5663116E1,0E0,0E0,2.3799597E1,2.0126495E0,1.5242313E1,1.0325668E1,3.0522995E0,2.8697636E1,3.970108E-1,3.9534857E0,1.11522455E1,1.1262592E1,8.188845E0,2.850082E-1,3.0329971E0,2.5795054E-1,2.6701832E1,2.1969805E1,0E0,0E0,7.1603537E-1,0E0,2.406797E0,0E0,2.2941856E0,5.5603576E0,1.5646782E0,3.9888356E0,0E0,0E0,0E0,0E0,0E0,0E0,0E0,0E0,0E0,0E0,0E0,0E0,0E0,0E0,0E0,0E0,0E0,0E0,0E0,0E0,0E0,0E0],"parents":[2147483647,0,0,1,1,2,2,3,3,4,4,7,7,8,8,9,9,10,10,11,11,12,12,13,13,14,14,15,15,16,16,17,17,18,18,19,19,20,20,21,21,22,22,25,25,27,27,29,29,30,30,31,31,32,32],"right_children":[2,4,6,8,10,-1,-1,12,14,16,18,20,22,24,26,28,30,32,34,36,38,40,42,-1,-1,44,-1,46,-1,48,50,52,54,-1,-1,-1,-1,-1,-1,-1,-1,-1,-1,-1,-1,-1,-1,-1,-1,-1,-1,-1,-1,-1,-1],"split_conditions":[7.14E-2,3.7E1,1.9E1,1E0,1.429E-1,-1.4342359E-2,-5.856785E-2,4.53E0,3E0,5.12E0,9.21E0,3.243E-1,1.364E-1,4E0,1.53E0,1.111E-1,3.85E-2,3E1,9.59E-2,5.28E-2,3.529E-1,4E0,6.67E-2,6.0513448E-2,1.7463775E-2,2.411E-1,-3.0707244E-2,6.242E1,-5.2268784E-2,9.67E0,6.25E-2,2.561E-1,1.11E-2,-4.6746235E-2,-9.132943E-3,-6.6422685E-3,5.83313E-2,9.012316E-3,-1.6643792E-2,-4.7884613E-2,2.2915523E-2,-4.6927184E-2,5.5220228E-2,5.785964E-2,6.3488767E-3,3.7316706E-2,-5.438851E-3,-5.337007E-2,1.2403052E-2,-2.6407978E-2,2.951174E-2,6.0979284E-2,1.3876944E-2,-5.064262E-2,1.8843409E-2],"split_indices":[17,0,0,7,4,0,0,15,10,15,15,1,4,7,21,14,3,13,1,1,1,13,1,0,0,1,0,23,0,21,4,1,16,0,0,0,0,0,0,0,0,0,0,0,0,0,0,0,0,0,0,0,0,0,0],"split_type":[0,0,0,0,0,0,0,0,0,0,0,0,0,0,0,0,0,0,0,0,0,0,0,0,0,0,0,0,0,0,0,0,0,0,0,0,0,0,0,0,0,0,0,0,0,0,0,0,0,0,0,0,0,0,0],"sum_hessian":[4.412898E2,3.2557196E2,1.1571785E2,2.1494492E2,1.10627045E2,1.2241178E0,1.1449374E2,1.3152972E2,8.341519E1,7.938279E1,3.1244255E1,4.1517616E1,9.001211E1,7.790041E1,5.5147734E0,2.256377E1,5.6819016E1,2.721693E1,4.027325E0,3.9484325E1,2.03329E0,5.223728E1,3.777483E1,7.637302E1,1.5273986E0,3.8752913E0,1.639482E0,1.7968576E1,4.5951953E0,4.0746777E1,1.6072239E1,2.0013489E1,7.203443E0,2.77733E0,1.2499951E0,1.6806357E0,3.7803688E1,1.024969E0,1.0083208E0,2.929411E1,2.294317E1,5.4597864E0,3.231504E1,2.7208216E0,1.1544695E0,1.4054159E1,3.9144166E0,3.9727646E1,1.0191288E0,9.17156E0,6.900679E0,1.7294691E1,2.7187977E0,2.1471043E0,5.0563383E0],"tree_param":{"num_deleted":"0","num_feature":"24","num_nodes":"55","size_leaf_vector":"1"}},{"base_weights":[-1.2051527E-2,3.8831484E-1,-1.1445613E0,6.594109E-1,-3.327417E-1,4.446655E-3,-5.7992946E-2,7.778986E-1,-3.4295183E-1,8.674055E-1,-6.774268E-1,8.612941E-1,-6.9777066E-1,4.7893605E-1,-7.216859E-1,1.046192E0,-3.2559235E-2,-2.4769709E-1,-1.044663E0,9.263492E-1,-1.6927752E-1,-1.0138781E0,4.3721676E-2,9.605294E-1,-4.6664733E-1,-1.0306759E0,-7.278642E-2,5.6570422E-2,-7.4017355E-3,-8.402078E-1,-1.2010787E-2,-1.1226739E0,-4.499755E-1,4.804924E-2,-1.5696634E-2,5.1800516E-2,-3.5282273E-2,-6.6045584E-4,-5.7098743E-2,5.3321093E-2,1.1349661E-2,-4.7017578E-2,7.7626035E-3,-1.8688941E-2,-6.1098218E-2,-3.4777563E-2,2.3738267E-2,3.2290244E-3,-5.042959E-2,4.210378E-2,-2.2462752E-2,-5.7189047E-2,-1.252387E-2,2.474254E-2,-4.911942E-2],"categories":[],"categories_nodes":[],"categories_segments":[],"categories_sizes":[],"default_left":[0,0,0,0,0,0,0,0,0,0,0,0,0,0,0,0,0,0,0,0,0,0,0,0,0,0,0,0,0,0,0,0,0,0,0,0,0,0,0,0,0,0,0,0,0,0,0,0,0,0,0,0,0,0,0],"id":23,"left_children":[1,3,5,7,9,-1,-1,11,13,15,17,19,21,23,25,27,-1,29,31,33,35,37,-1,39,41,43,45,-1,-1,47,49,51,53,-1,-1,-1,-1,-1,-1,-1,-1,-1,-1,-1,-1,-1,-1,-1,-1,-1,-1,-1,-1,-1,-1],"loss_changes":[1.94061E2,6.203485E1,2.2124481E0,2.7602272E1,3.6606792E1,0E0,0E0,2.5968765E1,8.135258E0,6.074972E0,1.0504923E1,1.3267654E1,6.6410294E0,4.3167815E0,3.4397287E0,2.0153008E0,0E0,4.5618644E0,1.1865692E0,8.210205E0,8.784253E0,1.2800074E0,0E0,2.2052383E-1,1.1887605E0,1.0258856E0,2.6253242E0,0E0,0E0,1.4823742E0,9.504182E0,2.9466248E-1,3.4529448E0,0E0,0E0,0E0,0E0,0E0,0E0,0E0,0E0,0E0,0E0,0E0,0E0,0E0,0E0,0E0,0E0,0E0,0E0,0E0,0E0,0E0,0E0],"parents":[2147483647,0,0,1,1,2,2,3,3,4,4,7,7,8,8,9,9,10,10,11,11,12,12,13,13,14,14,15,15,17,17,18,18,19,19,20,20,21,21,23,23,24,24,25,25,26,26,29,29,30,30,31,31,32,32],"right_children":[2,4,6,8,10,-1,-1,12,14,16,18,20,22,24,26,28,-1,30,32,34,36,38,-1,40,42,44,46,-1,-1,48,50,52,54,-1,-1,-1,-1,-1,-1,-1,-1,-1,-1,-1,-1,-1,-1,-1,-1,-1,-1,-1,-1,-1,-1],"split_conditions":[7.14E-2,1E0,1.8E1,1.739E-1,1E0,4.446655E-3,-5.7992946E-2,1.227E1,2.8E1,6.7E1,6.74E0,3.158E-1,1.795E-1,1E0,3.857E1,3.686E1,-3.2559235E-2,3.1E0,5.185E-1,7E0,1E0,2.715E1,4.3721676E-2,2.006E-1,2.8E-3,1.58E-1,3.12E-2,5.6570422E-2,-7.4017355E-3,4.8E0,6E1,7E0,6.25E-1,4.804924E-2,-1.5696634E-2,5.1800516E-2,-3.5282273E-2,-6.6045584E-4,-5.7098743E-2,5.3321093E-2,1.1349661E-2,-4.7017578E-2,7.7626035E-3,-1.8688941E-2,-6.1098218E-2,-3.4777563E-2,2.3738267E-2,3.2290244E-3,-5.042959E-2,4.210378E-2,-2.2462752E-2,-5.7189047E-2,-1.252387E-2,2.474254E-2,-4.911942E-2],"split_indices":[17,6,0,14,10,0,0,15,0,0,15,1,1,10,2,2,0,12,14,10,22,2,0,1,16,1,16,0,0,15,0,7,14,0,0,0,0,0,0,0,0,0,0,0,0,0,0,0,0,0,0,0,0,0,0],"split_type":[0,0,0,0,0,0,0,0,0,0,0,0,0,0,0,0,0,0,0,0,0,0,0,0,0,0,0,0,0,0,0,0,0,0,0,0,0,0,0,0,0,0,0,0,0,0,0,0,0,0,0,0,0,0,0],"sum_hessian":[4.260148E2,3.1523102E2,1.1078377E2,2.2915935E2,8.607168E1,1.2981278E0,1.0948564E2,2.0513464E2,2.4024712E1,1.8866064E1,6.720561E1,1.9455591E2,1.0578731E1,7.4950943E0,1.6529615E1,1.7157192E1,1.7088734E0,3.1739458E1,3.5466156E1,1.8309888E2,1.1457037E1,9.103503E0,1.4752276E0,4.9554415E0,2.539653E0,1.0799037E1,5.7305794E0,1.6063549E1,1.0936433E0,8.302413E0,2.3437044E1,3.0568369E1,4.8977876E0,1.783437E2,4.75517E0,3.2414815E0,8.215555E0,1.158287E0,7.945216E0,3.9337587E0,1.0216827E0,1.1509241E0,1.3887291E0,3.1016788E0,7.697358E0,2.5546842E0,3.1758952E0,1.3993989E0,6.903014E0,7.6222787E0,1.5814766E1,2.9542076E1,1.0262935E0,1.7906425E0,3.107145E0],"tree_param":{"num_deleted":"0","num_feature":"24","num_nodes":"55","size_leaf_vector":"1"}},{"base_weights":[9.494962E-3,5.8380204E-1,-6.3627785E-1,9.818059E-1,2.3882054E-1,-8.248512E-1,2.692179E-1,1.109919E0,-6.031551E-1,-2.8837043E-1,1.0977087E0,5.881953E-1,-8.9264905E-1,7.863282E-1,-2.1527873E-1,1.186235E0,8.530195E-1,-4.8994735E-2,4.1939072E-2,-7.1120363E-1,2.0081829E-1,1.1340898E0,-1.2223528E-2,8.176224E-1,-5.8568582E-2,-9.1642237E-1,4.8723915E-1,9.086103E-1,-2.678955E-2,-4.1299665E-1,4.9640696E-2,1.2033334E0,1.9536758E-2,9.89855E-1,1.7812972E-1,6.4709485E-1,-1.2258192E0,6.3377845E-1,-5.2758205E-1,5.796196E-2,4.5747435E-1,1.2228864E-2,5.042986E-2,1.1166397E-2,-1.5245773E-2,-5.8127517E-1,-1.0257858E0,-1.2966417E-2,4.956211E-2,1.0076926E0,-6.594807E-3,5.7490416E-2,-8.892459E-1,1.9756382E-2,6.077656E-2,5.178837E-2,8.32612E-3,3.0769182E-2,-3.8988538E-2,5.7001468E-2,-4.6182508E-3,-6.5382086E-2,7.6785246E-3,4.5633614E-2,-1.8649222E-2,-4.1096244E-2,3.764335E-3,-1.4240154E-3,3.4517266E-2,-8.177356E-3,-4.572583E-2,-5.326389E-2,-8.238635E-3,2.3245048E-2,5.4583956E-2,-2.0649543E-2,4.1520115E-2,-5.246531E-2,6.9275196E-3],"categories":[],"categories_nodes":[],"categories_segments":[],"categories_sizes":[],"default_left":[0,0,0,0,0,0,0,0,0,0,0,0,0,0,0,0,0,0,0,0,0,0,0,0,0,0,0,0,0,0,0,0,0,0,0,0,0,0,0,0,0,0,0,0,0,0,0,0,0,0,0,0,0,0,0,0,0,0,0,0,0,0,0,0,0,0,0,0,0,0,0,0,0,0,0,0,0,0,0],"id":24,"left_children":[1,3,5,7,9,11,13,15,17,19,21,23,25,27,29,31,33,-1,-1,35,37,39,-1,41,43,45,47,49,-1,51,-1,53,-1,55,57,59,61,63,65,-1,67,-1,-1,-1,-1,69,71,-1,-1,73,-1,75,77,-1,-1,-1,-1,-1,-1,-1,-1,-1,-1,-1,-1,-1,-1,-1,-1,-1,-1,-1,-1,-1,-1,-1,-1,-1,-1],"loss_changes":[1.5579338E2,3.0292427E1,3.398678E1,2.156591E1,5.4842518E1,1.6227333E1,8.897144E0,8.617554E-1,5.3547435E0,1.5741148E1,2.5238876E0,1.2508261E0,5.5902023E0,3.2459126E0,4.893571E0,4.9716187E-1,2.173727E0,0E0,0E0,2.9220774E1,1.1606204E1,2.3495102E-1,0E0,4.155202E-1,2.803115E-1,5.0661926E0,1.5019567E0,1.7816343E0,0E0,3.8237176E0,0E0,2.0132446E-1,0E0,6.1901283E-1,2.7873743E0,4.417015E0,3.5686874E0,6.7622404E0,2.5231874E0,0E0,3.889836E-1,0E0,0E0,0E0,0E0,5.4627E0,3.7406845E0,0E0,0E0,1.6340351E-1,0E0,3.7644002E0,1.5318437E0,0E0,0E0,0E0,0E0,0E0,0E0,0E0,0E0,0E0,0E0,0E0,0E0,0E0,0E0,0E0,0E0,0E0,0E0,0E0,0E0,0E0,0E0,0E0,0E0,0E0,0E0],"parents":[2147483647,0,0,1,1,2,2,3,3,4,4,5,5,6,6,7,7,8,8,9,9,10,10,11,11,12,12,13,13,14,14,15,15,16,16,19,19,20,20,21,21,23,23,24,24,25,25,26,26,27,27,29,29,31,31,33,33,34,34,35,35,36,36,37,37,38,38,40,40,45,45,46,46,49,49,51,51,52,52],"right_children":[2,4,6,8,10,12,14,16,18,20,22,24,26,28,30,32,34,-1,-1,36,38,40,-1,42,44,46,48,50,-1,52,-1,54,-1,56,58,60,62,64,66,-1,68,-1,-1,-1,-1,70,72,-1,-1,74,-1,76,78,-1,-1,-1,-1,-1,-1,-1,-1,-1,-1,-1,-1,-1,-1,-1,-1,-1,-1,-1,-1,-1,-1,-1,-1,-1,-1],"split_conditions":[3.7E1,1E0,1.455E-1,1.282E1,1.5E-1,1E0,3.547E1,2.5E1,8.86E-2,4.36E0,8.52E-2,1.844E-1,2.6E1,9.6E1,4.853E1,3.977E1,2.8E-3,-4.8994735E-2,4.1939072E-2,1E0,2.6E1,2.979E-1,-1.2223528E-2,2.757E1,3.24E-2,9.07E0,1E0,5E0,-2.678955E-2,1.386E1,4.9640696E-2,1.571E1,1.9536758E-2,8.54E0,2E-1,6.98E0,3E0,3E0,3.24E-2,5.796196E-2,3.125E-1,1.2228864E-2,5.042986E-2,1.1166397E-2,-1.5245773E-2,6.5E1,1.045E-1,-1.2966417E-2,4.956211E-2,1.469E-1,-6.594807E-3,1E0,6E0,1.9756382E-2,6.077656E-2,5.178837E-2,8.32612E-3,3.0769182E-2,-3.8988538E-2,5.7001468E-2,-4.6182508E-3,-6.5382086E-2,7.6785246E-3,4.5633614E-2,-1.8649222E-2,-4.1096244E-2,3.764335E-3,-1.4240154E-3,3.4517266E-2,-8.177356E-3,-4.572583E-2,-5.326389E-2,-8.238635E-3,2.3245048E-2,5.4583956E-2,-2.0649543E-2,4.1520115E-2,-5.246531E-2,6.9275196E-3],"split_indices":[0,10,4,15,4,20,2,0,1,12,3,1,22,0,2,2,3,0,0,21,0,1,0,2,4,12,18,10,0,12,0,2,0,15,16,15,18,10,4,0,1,0,0,0,0,0,3,0,0,1,0,7,7,0,0,0,0,0,0,0,0,0,0,0,0,0,0,0,0,0,0,0,0,0,0,0,0,0,0],"split_type":[0,0,0,0,0,0,0,0,0,0,0,0,0,0,0,0,0,0,0,0,0,0,0,0,0,0,0,0,0,0,0,0,0,0,0,0,0,0,0,0,0,0,0,0,0,0,0,0,0,0,0,0,0,0,0,0,0,0,0,0,0,0,0,0,0,0,0,0,0,0,0,0,0,0,0,0,0,0,0],"sum_hessian":[4.180717E2,2.2133083E2,1.9674084E2,1.0191078E2,1.1942005E2,1.6290437E2,3.3836468E1,9.456664E1,7.3441396E0,7.441061E1,4.5009445E1,7.106869E0,1.5579752E2,1.6066008E1,1.7770462E1,7.0119125E1,2.4447517E1,6.0768514E0,1.2672882E0,3.9668797E1,3.4741806E1,4.3972565E1,1.0368822E0,5.050963E0,2.0559065E0,1.53489E2,2.3085065E0,1.4992153E1,1.0738542E0,1.5836742E1,1.933719E0,6.8141815E1,1.9773089E0,1.993829E1,4.5092273E0,1.0828955E1,2.8839842E1,2.1871387E1,1.28704195E1,4.170898E1,2.263582E0,1.8326201E0,3.2183428E0,1.0023506E0,1.053556E0,3.9316765E1,1.1417224E2,1.1260213E0,1.1824851E0,1.3717444E1,1.2747083E0,8.408884E0,7.4278584E0,1.5096326E0,6.663219E1,1.8640785E1,1.2975047E0,3.3414996E0,1.1677277E0,6.1725435E0,4.656411E0,2.7274021E1,1.5658215E0,1.7200075E1,4.671313E0,8.403946E0,4.4664736E0,1.0176504E0,1.2459317E0,1.8108278E1,2.1208488E1,1.0893834E2,5.2338967E0,2.7138267E0,1.1003618E1,5.516556E0,2.8923283E0,6.408868E0,1.0189908E0],"tree_param":{"num_deleted":"0","num_feature":"24","num_nodes":"79","size_leaf_vector":"1"}},{"base_weights":[-7.928745E-3,4.600581E-1,-9.162257E-1,6.892965E-1,-2.4521789E-1,8.650229E-1,-9.8586625E-1,7.743413E-1,-7.860244E-1,8.9223915E-1,-6.116705E-1,1.437262E-2,4.7975957E-2,-1.0867807E0,-3.1778455E-1,3.2634827E-1,1.0289924E0,-1.0040667E0,3.1540044E-2,5.33684E-2,-2.367085E-2,-2.7936235E-2,-1.0073813E0,-1.1000098E0,4.7414037E-3,-4.9179205E-1,7.001058E-1,9.639395E-1,-2.3409972E-1,1.0514852E0,-2.9827118E-2,-1.055792E0,-1.3843104E-2,-8.397988E-1,3.121238E-1,-1.1505933E0,-5.3668374E-1,-4.144854E-1,-1.119179E0,3.6190498E-1,-7.407231E-1,-1.2687445E-2,6.544668E-2,5.8732428E-2,-3.234349E-2,-3.529817E-2,2.840118E-2,5.731071E-2,4.176291E-2,-1.4279335E-2,-5.580863E-2,5.5288053E-3,-5.169201E-2,3.401574E-2,-1.2577607E-2,-9.94698E-3,-5.9460074E-2,1.1153722E-2,-5.4663844E-2,8.980493E-3,-4.7967594E-2,-2.066296E-2,-5.701063E-2,4.2243194E-2,-1.1706479E-2,1.3965487E-2,-4.6634804E-2],"categories":[],"categories_nodes":[],"categories_segments":[],"categories_sizes":[],"default_left":[0,0,0,0,0,0,0,0,0,0,0,0,0,0,0,0,0,0,0,0,0,0,0,0,0,0,0,0,0,0,0,0,0,0,0,0,0,0,0,0,0,0,0,0,0,0,0,0,0,0,0,0,0,0,0,0,0,0,0,0,0,0,0,0,0,0,0],"id":25,"left_children":[1,3,5,7,9,11,13,15,17,19,21,-1,-1,23,25,27,29,31,-1,-1,-1,33,35,37,-1,39,41,43,45,47,-1,49,-1,51,53,55,57,59,61,63,65,-1,-1,-1,-1,-1,-1,-1,-1,-1,-1,-1,-1,-1,-1,-1,-1,-1,-1,-1,-1,-1,-1,-1,-1,-1,-1],"loss_changes":[1.741885E2,4.3895294E1,1.8137482E1,2.6251205E1,2.8506706E1,3.9393425E-2,8.726852E0,2.1766357E1,4.227839E0,4.51184E0,1.1828302E1,0E0,0E0,1.9252777E0,3.722339E0,2.5839252E1,5.1266785E0,1.0149479E-1,0E0,0E0,0E0,6.2713666E0,1.4427109E0,1.0510254E0,0E0,3.8542008E0,2.188723E0,1.2207272E1,1.5144028E1,1.5362701E0,0E0,1.1925602E-1,0E0,1.3492451E0,3.5062242E0,5.922699E-1,4.051385E0,1.7015108E0,1.1851959E0,1.4878532E0,2.8832054E0,0E0,0E0,0E0,0E0,0E0,0E0,0E0,0E0,0E0,0E0,0E0,0E0,0E0,0E0,0E0,0E0,0E0,0E0,0E0,0E0,0E0,0E0,0E0,0E0,0E0,0E0],"parents":[2147483647,0,0,1,1,2,2,3,3,4,4,5,5,6,6,7,7,8,8,9,9,10,10,13,13,14,14,15,15,16,16,17,17,21,21,22,22,23,23,25,25,26,26,27,27,28,28,29,29,31,31,33,33,34,34,35,35,36,36,37,37,38,38,39,39,40,40],"right_children":[2,4,6,8,10,12,14,16,18,20,22,-1,-1,24,26,28,30,32,-1,-1,-1,34,36,38,-1,40,42,44,46,48,-1,50,-1,52,54,56,58,60,62,64,66,-1,-1,-1,-1,-1,-1,-1,-1,-1,-1,-1,-1,-1,-1,-1,-1,-1,-1,-1,-1,-1,-1,-1,-1,-1,-1],"split_conditions":[4.55E-2,1E0,1.9E1,1.282E1,1E0,2E0,1.202E-1,4.64E-2,1E0,3.667E1,6.43E0,1.437262E-2,4.7975957E-2,2.9E1,7E0,1E0,2E0,3.959E1,3.1540044E-2,5.33684E-2,-2.367085E-2,2.67E0,5.19E-2,2.6E1,4.7414037E-3,3.5E1,2E-2,5.3E1,5.06E0,3E1,-2.9827118E-2,3.008E1,-1.3843104E-2,5.09E0,5E0,2.696E1,5.2E1,3.369E1,1E0,1E0,3.5E-1,-1.2687445E-2,6.544668E-2,5.8732428E-2,-3.234349E-2,-3.529817E-2,2.840118E-2,5.731071E-2,4.176291E-2,-1.4279335E-2,-5.580863E-2,5.5288053E-3,-5.169201E-2,3.401574E-2,-1.2577607E-2,-9.94698E-3,-5.9460074E-2,1.1153722E-2,-5.4663844E-2,8.980493E-3,-4.7967594E-2,-2.066296E-2,-5.701063E-2,4.2243194E-2,-1.1706479E-2,1.3965487E-2,-4.6634804E-2],"split_indices":[14,6,0,15,10,22,4,4,5,2,15,0,0,22,10,10,11,2,0,0,0,12,4,0,0,0,16,0,12,0,0,2,0,15,22,2,0,2,8,10,14,0,0,0,0,0,0,0,0,0,0,0,0,0,0,0,0,0,0,0,0,0,0,0,0,0,0],"split_type":[0,0,0,0,0,0,0,0,0,0,0,0,0,0,0,0,0,0,0,0,0,0,0,0,0,0,0,0,0,0,0,0,0,0,0,0,0,0,0,0,0,0,0,0,0,0,0,0,0,0,0,0,0,0,0,0,0,0,0,0,0,0,0,0,0,0,0],"sum_hessian":[4.077952E2,2.694556E2,1.383396E2,2.0337466E2,6.608093E1,4.7753663E0,1.3356424E2,1.9273935E2,1.0635314E1,1.5752106E1,5.032883E1,1.2397621E0,3.5356045E0,1.15492294E2,1.807194E1,7.067915E1,1.22060196E2,9.469354E0,1.1659603E0,1.4155284E1,1.5968223E0,2.0766157E1,2.9562672E1,1.14281876E2,1.2104242E0,1.5874977E1,2.1969624E0,3.2727222E1,3.7951927E1,1.2074261E2,1.3175901E0,8.418693E0,1.0506613E0,5.6965647E0,1.5069593E1,2.155885E1,8.003823E0,3.724096E0,1.1055778E2,3.4815006E0,1.23934765E1,1.08317E0,1.1137924E0,2.918086E1,3.5463612E0,2.3970642E1,1.3981285E1,8.096909E1,3.9773514E1,1.028543E0,7.3901496E0,1.0388129E0,4.657752E0,8.990263E0,6.0793304E0,1.0804162E0,2.0478432E1,3.6376247E0,4.3661985E0,2.102258E0,1.621838E0,3.796272E0,1.06761505E2,1.6925639E0,1.7889367E0,1.8909782E0,1.0502498E1],"tree_param":{"num_deleted":"0","num_feature":"24","num_nodes":"67","size_leaf_vector":"1"}},{"base_weights":[-3.3635453E-3,3.8092145E-1,-1.1187948E0,7.609417E-1,-1.1435943E-1,-3.5597787E-3,-5.669069E-2,8.5275376E-1,-6.9545734E-1,-5.046083E-1,8.2438296E-1,9.524036E-1,-1.4820319E-2,-5.32802E-2,3.170274E-2,-6.2333393E-1,3.5574183E-1,1.0302434E0,-2.2704148E-1,1.0805166E0,5.4748464E-1,6.236064E-1,-8.6246306E-1,-2.72045E-1,-8.606024E-1,-3.669485E-1,1.2405298E0,1.1210661E0,-1.6811918E-2,-8.873095E-1,5.234672E-1,5.6736518E-2,2.7975468E-2,6.0679195E-3,5.0983336E-2,4.010343E-2,-2.3674017E-2,-5.2590746E-2,3.6490464E-3,-3.234095E-2,4.5293506E-2,-4.6179272E-2,7.4587762E-3,-4.303899E-2,2.686204E-2,1.3641588E-2,7.083192E-2,5.7607275E-2,7.1431994E-3,2.2596093E-2,-2.614523E-2,-1.3692434E-2,-5.187592E-2,4.650135E-2,-9.86679E-3],"categories":[],"categories_nodes":[],"categories_segments":[],"categories_sizes":[],"default_left":[0,0,0,0,0,0,0,0,0,0,0,0,0,0,0,0,0,0,0,0,0,0,0,0,0,0,0,0,0,0,0,0,0,0,0,0,0,0,0,0,0,0,0,0,0,0,0,0,0,0,0,0,0,0,0],"id":26,"left_children":[1,3,5,7,9,-1,-1,11,13,15,17,19,21,-1,-1,23,25,27,29,31,33,35,37,39,41,43,45,47,49,51,53,-1,-1,-1,-1,-1,-1,-1,-1,-1,-1,-1,-1,-1,-1,-1,-1,-1,-1,-1,-1,-1,-1,-1,-1],"loss_changes":[1.6924744E2,5.5361862E1,1.5111237E0,2.2830505E1,4.744411E1,0E0,0E0,1.357798E1,5.800045E0,9.5473E0,8.475145E0,6.7095337E0,9.817995E0,0E0,0E0,6.4829617E0,7.941347E0,3.06398E0,3.959807E0,2.3560257E0,7.0904818E0,2.4084988E0,1.4560318E0,1.5573473E1,3.1675262E0,3.6844213E0,5.4940224E-1,7.3166275E-1,1.0763433E0,9.5841885E-2,1.3352615E0,0E0,0E0,0E0,0E0,0E0,0E0,0E0,0E0,0E0,0E0,0E0,0E0,0E0,0E0,0E0,0E0,0E0,0E0,0E0,0E0,0E0,0E0,0E0,0E0],"parents":[2147483647,0,0,1,1,2,2,3,3,4,4,7,7,8,8,9,9,10,10,11,11,12,12,15,15,16,16,17,17,18,18,19,19,20,20,21,21,22,22,23,23,24,24,25,25,26,26,27,27,28,28,29,29,30,30],"right_children":[2,4,6,8,10,-1,-1,12,14,16,18,20,22,-1,-1,24,26,28,30,32,34,36,38,40,42,44,46,48,50,52,54,-1,-1,-1,-1,-1,-1,-1,-1,-1,-1,-1,-1,-1,-1,-1,-1,-1,-1,-1,-1,-1,-1,-1,-1],"split_conditions":[7.14E-2,2E0,1.7E1,1.362E1,1.481E-1,-3.5597787E-3,-5.669069E-2,4.55E-2,9.59E-2,5.88E-2,4E0,1E0,3.4E1,-5.32802E-2,3.170274E-2,3.369E1,2.9E-2,4.124E1,5E0,6.4E1,1.364E-1,2.639E-1,8.06E0,1E0,1.2E1,1E0,2.33E-2,7.3E-2,8.21E0,7E0,1E0,5.6736518E-2,2.7975468E-2,6.0679195E-3,5.0983336E-2,4.010343E-2,-2.3674017E-2,-5.2590746E-2,3.6490464E-3,-3.234095E-2,4.5293506E-2,-4.6179272E-2,7.4587762E-3,-4.303899E-2,2.686204E-2,1.3641588E-2,7.083192E-2,5.7607275E-2,7.1431994E-3,2.2596093E-2,-2.614523E-2,-1.3692434E-2,-5.187592E-2,4.650135E-2,-9.86679E-3],"split_indices":[17,10,0,15,4,0,0,14,1,3,22,10,0,0,0,2,16,2,10,0,4,1,15,7,10,18,4,3,15,22,6,0,0,0,0,0,0,0,0,0,0,0,0,0,0,0,0,0,0,0,0,0,0,0,0],"split_type":[0,0,0,0,0,0,0,0,0,0,0,0,0,0,0,0,0,0,0,0,0,0,0,0,0,0,0,0,0,0,0,0,0,0,0,0,0,0,0,0,0,0,0,0,0,0,0,0,0,0,0,0,0,0,0],"sum_hessian":[3.9285007E2,2.9267654E2,1.0017354E2,1.6530475E2,1.2737179E2,1.4969776E0,9.867656E1,1.5589174E2,9.4130125E0,9.029663E1,3.7075153E1,1.3974303E2,1.6148712E1,7.5183454E0,1.8946668E0,7.958907E1,1.0707558E1,3.1021534E1,6.0536213E0,1.04888664E2,3.4854362E1,9.361861E0,6.786852E0,3.2950554E1,4.663852E1,6.2157965E0,4.491761E0,2.8480425E1,2.541108E0,3.123453E0,2.9301684E0,9.393612E1,1.0952542E1,1.8981396E1,1.5872966E1,8.283328E0,1.0785323E0,5.540871E0,1.2459807E0,2.5339296E1,7.6112566E0,4.3980667E1,2.6578538E0,4.0512037E0,2.1645927E0,1.0840801E0,3.407681E0,2.7431068E1,1.0493566E0,1.374816E0,1.166292E0,1.1696523E0,1.9538006E0,1.6878774E0,1.242291E0],"tree_param":{"num_deleted":"0","num_feature":"24","num_nodes":"55","size_leaf_vector":"1"}},{"base_weights":[-2.4922933E-2,3.4693515E-1,-1.1089739E0,6.476965E-1,-2.191395E-1,1.0176599E-2,-5.6266975E-2,3.8582784E-1,1.0470734E0,1.986503E-1,-6.720352E-1,-8.325246E-2,8.125867E-1,1.0975565E0,2.5320452E-1,5.2120084E-1,-6.261274E-1,-9.4661844E-1,1.4267002E-1,9.169434E-1,-5.3583014E-1,-9.2975044E-1,1.0339365E0,1.1163218E0,1.48695065E-2,4.7302112E-2,-5.1480895E-1,-5.791557E-2,7.814302E-1,-9.335686E-1,2.9665813E-1,-1.0911659E0,-7.282017E-2,-4.8478252E-1,5.942081E-1,5.0391283E-2,-1.7242087E-3,-4.781006E-2,1.0953306E-2,-1.0479685E-2,-5.146389E-2,5.6193944E-2,-2.059972E-3,5.6492686E-2,1.0274119E-2,1.4594573E-2,-4.9383648E-2,-1.702491E-2,4.5866936E-2,5.0961383E-2,1.7028475E-4,-1.2267742E-3,-5.2327443E-2,-2.2431007E-2,3.7547637E-2,-1.9215964E-2,-5.8555473E-2,-2.3425076E-2,3.3229496E-2,-4.3574125E-2,3.150348E-2,-9.816089E-3,4.2655837E-2],"categories":[],"categories_nodes":[],"categories_segments":[],"categories_sizes":[],"default_left":[0,0,0,0,0,0,0,0,0,0,0,0,0,0,0,0,0,0,0,0,0,0,0,0,0,0,0,0,0,0,0,0,0,0,0,0,0,0,0,0,0,0,0,0,0,0,0,0,0,0,0,0,0,0,0,0,0,0,0,0,0,0,0],"id":27,"left_children":[1,3,5,7,9,-1,-1,11,13,15,17,19,21,23,25,27,29,31,33,35,37,39,41,43,-1,-1,45,47,49,51,53,55,57,59,61,-1,-1,-1,-1,-1,-1,-1,-1,-1,-1,-1,-1,-1,-1,-1,-1,-1,-1,-1,-1,-1,-1,-1,-1,-1,-1,-1,-1],"loss_changes":[1.5766756E2,4.973291E1,2.3747559E0,1.9515907E1,1.939753E1,0E0,0E0,2.3413399E1,2.721695E0,1.4620109E1,1.1114635E1,2.6050234E1,2.4547989E1,7.2016144E-1,3.5598834E0,5.948312E0,4.691167E0,4.5735817E0,4.0395117E0,1.5875902E0,1.2745678E1,3.161292E-1,5.3394775E0,6.072235E-1,0E0,0E0,1.5800822E0,3.915753E0,5.009411E0,1.1977282E0,1.9103323E0,1.332119E0,2.1497626E0,3.1753788E0,1.835428E0,0E0,0E0,0E0,0E0,0E0,0E0,0E0,0E0,0E0,0E0,0E0,0E0,0E0,0E0,0E0,0E0,0E0,0E0,0E0,0E0,0E0,0E0,0E0,0E0,0E0,0E0,0E0,0E0],"parents":[2147483647,0,0,1,1,2,2,3,3,4,4,7,7,8,8,9,9,10,10,11,11,12,12,13,13,14,14,15,15,16,16,17,17,18,18,19,19,20,20,21,21,22,22,23,23,26,26,27,27,28,28,29,29,30,30,31,31,32,32,33,33,34,34],"right_children":[2,4,6,8,10,-1,-1,12,14,16,18,20,22,24,26,28,30,32,34,36,38,40,42,44,-1,-1,46,48,50,52,54,56,58,60,62,-1,-1,-1,-1,-1,-1,-1,-1,-1,-1,-1,-1,-1,-1,-1,-1,-1,-1,-1,-1,-1,-1,-1,-1,-1,-1,-1,-1],"split_conditions":[7.14E-2,3.8E1,1.7E1,1E0,6.67E0,1.0176599E-2,-5.6266975E-2,4.95E-2,3E0,1.111E-1,4.38E-2,1E0,6.67E-2,3.6E1,2.353E-1,4.64E-2,3.13E-2,1.724E-1,6.25E-2,3E0,4E0,7.23E0,4.147E1,4E0,1.48695065E-2,4.7302112E-2,6.98E0,5.22E-2,2.278E-1,3.008E1,5.83E0,3.042E1,2E0,3.5E-1,4.88E-2,5.0391283E-2,-1.7242087E-3,-4.781006E-2,1.0953306E-2,-1.0479685E-2,-5.146389E-2,5.6193944E-2,-2.059972E-3,5.6492686E-2,1.0274119E-2,1.4594573E-2,-4.9383648E-2,-1.702491E-2,4.5866936E-2,5.0961383E-2,1.7028475E-4,-1.2267742E-3,-5.2327443E-2,-2.2431007E-2,3.7547637E-2,-1.9215964E-2,-5.8555473E-2,-2.3425076E-2,3.3229496E-2,-4.3574125E-2,3.150348E-2,-9.816089E-3,4.2655837E-2],"split_indices":[17,0,0,7,15,0,0,4,10,14,3,10,1,0,1,4,3,4,4,22,13,15,2,7,0,0,15,3,1,2,15,2,7,14,3,0,0,0,0,0,0,0,0,0,0,0,0,0,0,0,0,0,0,0,0,0,0,0,0,0,0,0,0],"split_type":[0,0,0,0,0,0,0,0,0,0,0,0,0,0,0,0,0,0,0,0,0,0,0,0,0,0,0,0,0,0,0,0,0,0,0,0,0,0,0,0,0,0,0,0,0,0,0,0,0,0,0,0,0,0,0,0,0,0,0,0,0,0,0],"sum_hessian":[3.8917044E2,2.9027756E2,9.889291E1,1.8946739E2,1.00810165E2,1.0770667E0,9.7815834E1,1.1562136E2,7.384603E1,5.2729412E1,4.808075E1,5.546302E1,6.0158337E1,6.9071175E1,4.774858E0,3.817009E1,1.4559324E1,3.5839657E1,1.2241094E1,1.6958569E1,3.850445E1,6.4203873E0,5.373795E1,6.710239E1,1.9687845E0,2.38842E0,2.3864377E0,1.2075228E1,2.609486E1,1.0912095E1,3.6472297E0,3.0539003E1,5.300654E0,5.091866E0,7.149227E0,1.5425791E1,1.5327783E0,2.4560848E1,1.3943604E1,1.156696E0,5.263691E0,4.954762E1,4.190327E0,6.588314E1,1.2192435E0,1.0233427E0,1.3630949E0,9.867078E0,2.2081506E0,1.9748774E1,6.346086E0,1.3408495E0,9.571245E0,1.3859862E0,2.2612436E0,3.6930525E0,2.6845951E1,3.6869614E0,1.6136925E0,3.9426186E0,1.1492474E0,1.8234351E0,5.3257923E0],"tree_param":{"num_deleted":"0","num_feature":"24","num_nodes":"63","size_leaf_vector":"1"}},{"base_weights":[-4.817625E-3,3.5494685E-1,-5.495438E-2,5.933054E-1,-2.7915657E-1,6.626598E-1,-8.8046473E-1,2.3193781E-1,-9.6391535E-1,7.8627485E-1,-2.9889905E-1,-5.2398663E-2,1.1265506E-2,7.418952E-1,-2.2776163E-1,6.9387616E-3,-1.0263726E0,8.470797E-1,-1.1378922E-1,3.480577E-1,-5.5246747E-1,8.740829E-1,-3.491284E-2,8.3082044E-1,-3.793236E-1,-1.0721334E0,-2.303947E-3,4.4774357E-2,-7.28745E-3,4.6357937E-2,-2.7673233E-2,4.3511655E-2,-3.750096E-2,-3.559861E-2,3.6251962E-2,4.8104312E-2,-1.6780479E-2,5.560538E-2,6.040704E-3,-3.159211E-2,1.8994436E-3,-5.739824E-2,-1.8438391E-2],"categories":[],"categories_nodes":[],"categories_segments":[],"categories_sizes":[],"default_left":[0,0,0,0,0,0,0,0,0,0,0,0,0,0,0,0,0,0,0,0,0,0,0,0,0,0,0,0,0,0,0,0,0,0,0,0,0,0,0,0,0,0,0],"id":28,"left_children":[1,3,-1,5,7,9,11,13,15,17,19,-1,-1,21,23,-1,25,27,29,31,33,35,-1,37,39,41,-1,-1,-1,-1,-1,-1,-1,-1,-1,-1,-1,-1,-1,-1,-1,-1,-1],"loss_changes":[1.464606E2,4.2484524E1,0E0,2.1416046E1,2.7232681E1,2.3440277E1,2.0124044E0,1.0717445E1,2.4273891E0,9.578789E0,3.9593778E0,0E0,0E0,4.7160854E0,4.2346563E0,0E0,1.3644638E0,7.9363556E0,5.934758E0,4.711985E0,3.9566078E0,2.473113E0,0E0,5.393007E-1,2.3483007E0,1.180378E0,0E0,0E0,0E0,0E0,0E0,0E0,0E0,0E0,0E0,0E0,0E0,0E0,0E0,0E0,0E0,0E0,0E0],"parents":[2147483647,0,0,1,1,3,3,4,4,5,5,6,6,7,7,8,8,9,9,10,10,13,13,14,14,16,16,17,17,18,18,19,19,20,20,21,21,23,23,24,24,25,25],"right_children":[2,4,-1,6,8,10,12,14,16,18,20,-1,-1,22,24,-1,26,28,30,32,34,36,-1,38,40,42,-1,-1,-1,-1,-1,-1,-1,-1,-1,-1,-1,-1,-1,-1,-1,-1,-1],"split_conditions":[7.14E-2,1E0,-5.495438E-2,1.362E1,6.74E0,1.5E-1,1.099E-1,2E0,1E0,3.125E-1,1E0,-5.2398663E-2,1.1265506E-2,6E0,4.445E1,6.9387616E-3,1.143E-1,6E0,1E0,2.006E-1,1.1E1,8E0,-3.491284E-2,1.7E1,2E0,5.789E-1,-2.303947E-3,4.4774357E-2,-7.28745E-3,4.6357937E-2,-2.7673233E-2,4.3511655E-2,-3.750096E-2,-3.559861E-2,3.6251962E-2,4.8104312E-2,-1.6780479E-2,5.560538E-2,6.040704E-3,-3.159211E-2,1.8994436E-3,-5.739824E-2,-1.8438391E-2],"split_indices":[17,6,0,15,15,14,1,10,10,1,10,0,0,7,23,0,16,10,21,1,10,5,0,5,18,14,0,0,0,0,0,0,0,0,0,0,0,0,0,0,0,0,0],"split_type":[0,0,0,0,0,0,0,0,0,0,0,0,0,0,0,0,0,0,0,0,0,0,0,0,0,0,0,0,0,0,0,0,0,0,0,0,0,0,0,0,0,0,0],"sum_hessian":[3.7003912E2,2.7899066E2,9.104847E1,2.0281654E2,7.61741E1,1.9422676E2,8.58979E0,4.3996796E1,3.2177307E1,1.722634E2,2.1963356E1,7.505144E0,1.0846462E0,2.0567179E1,2.3429615E1,1.6593497E0,3.0517958E1,1.6141753E2,1.0845871E1,6.079479E0,1.5883877E1,1.91981E1,1.3690803E0,2.3730896E0,2.1056526E1,2.9067385E1,1.4505731E0,1.5400665E2,7.410868E0,2.891471E0,7.9544E0,4.260805E0,1.8186738E0,1.4514355E1,1.3695219E0,1.8086985E1,1.1111147E0,1.2940743E0,1.0790151E0,1.2798185E1,8.258341E0,2.5667961E1,3.3994243E0],"tree_param":{"num_deleted":"0","num_feature":"24","num_nodes":"43","size_leaf_vector":"1"}},{"base_weights":[3.1436852E-3,4.2946E-1,-8.752337E-1,6.961256E-1,-1.1800171E-1,-4.9172407E-1,-5.572195E-2,7.616773E-1,-8.7267643E-1,2.1243688E-1,-6.390409E-1,-6.1575377E-1,7.0338345E-1,4.140074E-1,1.0204788E0,